encog,BasicNetwork,java,3.4.0,1,1724809562822
[BASIC]
[BASIC:PARAMS]
[BASIC:NETWORK]
beginTraining=0
connectionLimit=0
contextTargetOffset=0,0,0,0
contextTargetSize=0,0,0,0
endTraining=3
hasContext=f
inputCount=9
layerCounts=2,19,55,9
layerFeedCounts=2,18,54,9
layerContextCount=0,0,0,0
layerIndex=0,2,21,76
output=0.5956007014,0.3286791927,0,11.2540851133,6.2442927751,0,2.8901601338,12.5027161994,1.3346364618,5.425680634,0,0,0,0,0.0190504244,0,0,0,0,0,1,0,0,0,0,0.5743530368,0,0,0,0,0,0.3512882184,0.25177022,0.8826877507,2.3990836678,0,0,0.0387977951,0,0,0,0,0.3702099207,0.1761641414,1.535932795,1.9812533453,0.1662766498,0.6137326344,2.5633021196,0.7554472263,0,0.8962473305,0,0.285626947,1.2684691929,0,0,2.5778958418,0,0,1.4929298592,0.877337654,0,0,0,0,0.282137554,2.1532145374,1.2045623616,0,1.7223481955,0.4860359995,0.3953513092,0,1.1716545273,1,0.6331083534,0.4015239574,0.8894718672,-0.4174898364,-0.66796875,-0.6164314916,1,-0.4740814138,-0.1232491548
outputCount=2
weightIndex=0,38,1028,1514
weights=-0.031714149,0.0318283083,-0.0270212034,0.0072316675,-0.0078603127,0.0207780948,0.0062482727,-0.0087644257,-0.0081491528,-0.0188477672,-0.0120272306,-0.0068920794,-0.0067880834,-0.0270725547,-0.0194399174,0.0134365162,-0.0340606203,-0.0055814286,0.2089622287,0.0029275221,0.0043200739,0.1646323107,-0.002040352,0.0022121795,0.0012111121,0.0011954495,-0.0366378921,0.0002852387,0.0161851258,-0.0024096003,0.0115188384,0.030987716,-0.0222252512,0.0059120486,-0.0292189452,0.0040819646,-0.0020888302,-0.5735329056,-1.3757789651,-0.5168509129,-0.4349024133,0.0592876445,-0.0894411323,0.1659329375,1.1597830596,0.2517907781,0.0889933825,0.2030361329,-0.7425833548,-0.12754165,-0.6200470123,-0.5750733098,0.2001976338,-0.5246950713,0.5152718198,0.1731939095,0.1016974881,-0.1108709051,0.7111390701,-0.3239442331,-0.1708695809,-0.9100870556,0.1809297344,-0.5260517261,-0.3963266187,-0.1279627667,0.1891388906,0.7749383527,-0.5229856359,0.30326771,-0.8674560587,-0.1511300918,-0.5653954802,0.7720950389,0.2661289977,-0.2245953212,1.4697076834,0.5757263059,0.5161617104,-0.669113653,0.7712984215,0.0892181482,-1.2395077149,0.4050122881,-0.1745436442,-0.885767967,0.5763794203,0.6089228868,0.08203678,-1.4391934568,0.8348050082,-0.4260823746,1.3035833915,0.0514653102,0.9040536841,1.0133541102,-1.0490609974,-0.1326271512,0.6138836267,-0.9370330946,-0.9030564,-1.5569209639,-0.0946976962,1.3596161531,0.6581199723,0.6291591554,-0.0137108493,-0.7164002649,0.5597169662,-0.4647950121,-1.0707260946,-0.0067701167,-1.2864624351,-0.2339588582,-0.815336089,0.9929449647,0.0088828802,0.205838886,-0.7019145435,-0.0363373053,0.6179512719,1.1807814793,0.0973620395,0.2964483018,-0.1226509779,-0.0091717266,1.2852957517,0.3832615141,-0.0034077325,0.6907640853,-0.8334574843,-1.0544771826,-0.0273013307,0.0660217915,-0.6577585467,-0.6143114984,-0.9101680316,0.7780423816,-0.3260964901,1.5906423352,0.8989531559,-0.3617596934,-0.7409611347,0.4540344099,2.0521391987,-0.6397245779,-0.1241705782,-0.1661248504,-0.1109666382,0.4108975578,0.3702825347,0.1300759806,-0.5999857132,0.3748435489,0.3496081943,-0.0606914765,0.2305981859,-0.0025633666,0.2786286948,-0.3639718211,-0.4750239462,0.2480802561,0.3370534783,0.1098722412,-0.3185631351,-0.442099863,-0.534394854,-0.1428795085,0.0224006024,0.0389375908,-0.1207637138,0.8221666439,0.6214325307,0.0821839404,-0.7138861029,0.3643766717,-0.0804820077,0.459217089,0.1423218459,0.9771170152,0.3366752179,-0.4660169025,-0.4259749656,-0.9621571873,0.5058305145,-0.0314427482,0.9989846226,-0.0342195862,0.6951659465,0.6626446309,-0.4014372605,-0.5703031683,0.0984778403,0.0746899629,0.5141248085,-0.5599516879,0.3376483348,-0.5309372631,1.244693689,0.7537381403,-0.3033209454,0.4160719915,1.0581107862,0.5346886398,0.9078353282,0.5986502252,0.4556694682,-1.1116721284,0.2416431771,0.1454602425,-0.8532452547,-0.3071532999,-0.113753126,-0.183438801,0.3167294551,0.9996834554,-1.2019322822,0.3605082704,-0.3105854621,-0.1377516141,0.433472966,0.4665745389,0.8195669415,-0.5854458004,1.0426322298,-0.5415525523,-0.5339249171,-0.0259257696,-0.9656673369,0.3257348245,-0.3732099749,0.9663508018,-0.2450795575,0.9510673517,-0.472841963,0.8984298308,0.687810601,0.7860764451,0.8560944795,1.0537493826,-1.4431664366,-0.1427549095,-1.2118563159,0.4869318079,-0.3666735478,0.4818740479,-0.2731627716,0.896068125,-0.1880265744,-0.6387674344,0.5277892369,0.4261901717,-1.0609414117,-0.5738408311,1.2415303017,0.3515367819,0.6522439864,-0.5962101273,0.7390425262,0.1619382102,0.12568623,-0.4455506956,0.6635463954,0.1284293832,0.0150477771,-0.2029369723,0.0081711426,0.5129302986,0.9430566408,-0.5110063098,-0.3223213341,1.0612817261,0.0562127696,0.2879267142,0.5060949938,-0.5357237697,-0.7001598779,-0.9604591816,-0.3563995525,-0.2162383874,1.1252413862,0.8979629397,0.4367978201,-0.5293606176,0.7153658966,-0.1595990733,0.3130147981,0.4381726807,0.8941388537,0.6803615023,0.0992020697,0.3490263881,-0.9538800034,0.5490430497,0.0343437239,-0.6615776687,0.3957176922,-0.5823259887,-0.347986931,-0.5081036162,-0.8889685549,-0.5298406129,0.1851179102,-0.9678831745,0.3788525326,0.2776602517,0.2529268519,-0.8454325085,0.3600595985,-0.8176404319,0.9355664464,-0.8758314578,-0.9492004931,0.2698529223,-0.0590687965,-0.2332888634,-0.9168567426,-0.530745255,0.0891249586,-1.2367493188,-0.8793741706,0.0255720759,-0.8778981928,0.2476840112,0.7135327113,0.8391639755,0.6241308229,0.0108132141,0.0207552144,-0.3409391275,0.4595195403,0.6817002877,-0.042681295,-1.4575308581,-0.2477370824,-0.1212166124,0.252833694,1.1587558633,-0.0859689538,-0.167715659,0.5310545913,1.2040801434,-1.0545621663,-0.8835994842,0.2537179654,1.2288672349,1.1916464216,-0.3823559691,-0.7234439019,0.6192735212,0.3380776919,-1.0533286675,0.0362664728,0.4336910143,0.6602924932,0.6671870979,-1.1708415016,0.2688821444,-0.6922401501,1.2743303819,1.103814261,-0.6544245926,-0.7248898139,0.3508156557,1.3584577742,1.0408814513,-0.7498055947,0.0312546685,0.5707434293,-0.6536761685,-0.7610328089,-1.5422326111,0.4307248015,0.5498286977,-0.5389073357,0.4179727288,-0.9387273287,-0.8218026466,1.3609447681,-0.0856046209,-0.3850802498,0.6198196537,0.5779726245,-0.6037753418,0.0123854453,0.0327436042,-0.0054501211,-1.3051853162,-1.2260662001,-1.0516038369,0.5170902111,-0.5518262376,-0.7266776837,0.7909463332,0.2026997809,0.3850188327,-0.4875840287,0.7122089592,0.4287801099,0.7396001581,0.588378204,0.3298511695,-0.1559571548,0.6137156802,-0.4279953947,-0.4287087892,-0.285849215,0.681194147,0.5635774011,-0.9754492721,0.3279518442,-0.9321558307,-1.1837688112,0.0775281065,0.3059533472,-0.3938858888,-0.5616216854,-0.6111963479,0.4398580599,-0.7011203904,1.0061569063,0.6316120997,-0.0144877084,0.1870152623,-0.0039362532,0.6191350306,-0.0365096483,-0.1935341882,-0.1284695818,-0.0631572046,-0.5876666917,1.1077324502,-0.4675955191,0.5684783137,0.3567398788,0.0124525107,0.460612903,-0.3564859804,-0.2102426957,0.6411353632,0.4447444893,-0.4201886378,0.497380067,0.3399533769,0.2977216854,0.1949578138,1.0085454598,0.3816221,0.2416871575,0.2348100507,0.7260385559,0.840156377,-0.2158979859,1.0147698023,0.4455391354,-0.1164349229,0.3982537397,0.5377593346,-0.3759545448,1.183394918,0.0085178691,0.2010793052,-0.2225995094,-0.4668452509,-0.7913182941,-0.052956229,-1.2195672846,-0.4893695096,-0.0339377946,-0.9324357521,0.5784838563,0.9642147984,-1.1951048167,0.3999149108,0.6002826682,0.1589290995,-0.6818210873,-0.9674862091,0.6523227356,-0.901534214,1.2196622418,-0.3302804885,-0.6661444557,0.7419577949,0.5513561018,0.8583561063,-0.3361850407,-0.1760878836,-0.3534483136,-0.284588999,0.3238842266,0.5764177208,0.7397452753,0.8024977342,-0.2921351616,0.5557327115,0.8171407245,-0.733529236,1.0799525664,-0.2024687146,0.7676629838,-0.5498194427,-0.5146958159,0.3318134882,0.6230107042,-0.9396372973,-0.3893229046,1.1743442523,1.1527523488,0.1890090971,-1.0109688741,-0.8515096814,0.293927914,0.0886634706,0.5831085273,0.5470184898,0.0271946354,-0.3621278228,0.7808517679,0.0923555099,0.7529583052,0.5145418511,-0.391704913,0.7241564859,0.3558980731,0.2648121951,-0.4636902552,-1.1910627079,0.2394881401,-0.0140389605,0.3125573605,-0.7282834147,-1.1285199479,-0.020997177,0.4591386391,-0.7966749629,-0.206589983,0.515859926,-0.405365554,-0.3944517044,0.0152104344,-0.6225148579,0.6836344782,-1.3709956717,0.066101634,-0.6184194517,-0.1891055962,-0.5051771998,-0.1844173978,-0.8603624617,0.5597833347,-0.7077823239,0.8751412068,-0.2004313343,0.1780765121,-0.692723169,0.4683455031,-0.8124420681,-0.1878431366,1.061643097,-0.4948076361,-0.055364574,-0.8675830171,-0.2430298626,0.4943314304,-1.0235092073,0.5756604194,0.8220506421,-0.8785544706,-0.4023285895,-0.0622373158,0.6099497509,-0.3580195259,0.9238762047,-0.1474880945,-0.5277699963,-0.8685061798,-1.1765668338,0.7674870113,0.5263092694,0.6310990093,-0.1548502433,1.2465611757,0.581260447,-1.221826577,-0.6694825089,-0.4036691188,-0.4413005384,-0.2206730084,0.3798589244,-0.2066098946,-0.3552030679,-0.1336520802,-0.6367069168,-0.3331423617,-0.2966324747,-0.400526866,-0.3254105043,-0.5829445674,0.0404865339,-0.2315300882,0.9817412192,0.035736131,-0.8738144556,-0.2566540007,0.7878272999,-1.0117286693,-0.4711152786,-0.5595775411,0.0417216889,-1.1454398463,0.0224318545,-0.7952893055,-0.5810981631,-0.1036965278,-1.2559971724,-0.6854067761,0.2998119951,0.1478747545,-0.3576593564,0.1927975503,-0.5735035506,-0.76928458,0.4511128677,-0.2964651933,-0.0915543799,-0.2163377839,1.2903241703,-0.0927924699,-0.427463886,0.2377478992,0.2582328234,-0.8381748945,-0.4171342944,-0.9250249166,-0.7161013452,-0.8415799051,-0.1946651395,1.2754233174,-1.1971310834,0.6494991796,0.3502847032,1.3864859866,0.0890978341,0.1381655376,-0.4832845176,-0.3427901035,-0.7921379741,0.9578682705,0.2705719275,0.201410738,-0.0376569073,-0.2736491969,0.9225929455,-0.9971738797,0.1945059922,0.777758065,0.7227349721,-0.4350183541,-0.58590379,-0.8671766888,-0.882842736,-1.0816219416,-0.5518452419,-0.1476213153,-0.0545451865,-0.5879323329,-0.275533738,-0.0907174998,0.2256070252,-0.4012618855,-0.8468676544,-0.7497771786,0.4700966575,0.8125516855,-0.3320176523,-0.2334256425,-0.830996452,-1.0332215805,-0.5047998683,1.3368213301,-0.1724597426,0.1600399878,0.5684296764,-1.0671341885,-0.1838138671,0.5697264517,-1.4320831997,-0.3212110235,-0.0066822472,0.3338418106,-1.1016115313,-0.5503588355,0.589449743,-0.825088773,-0.3689821667,-1.1534298269,-0.4124222666,-1.5160002873,-0.8458877269,-0.7310180907,-0.959172828,-0.0576062267,0.6103620075,-0.5389154006,-1.1793167729,-0.8646589621,0.9010086369,0.2060066133,-0.6919647113,-0.2471158562,0.6592314351,0.9778903679,0.4024050728,-0.9459325782,0.586791581,-0.6395814629,-0.7069399569,-0.8906149296,-1.1320588894,-0.0895552322,-0.5333053309,-0.3239503588,1.0914589284,0.721472841,-1.1619972449,0.0301533838,-1.2840228652,-1.4990047951,0.7779410445,0.9677023145,0.6784889876,0.2758245258,0.0166869326,-0.8494926261,1.0565958923,-0.1947889433,0.3150679901,0.3672712762,0.6203581128,-0.2160349288,-0.6737308013,0.1389332266,0.8874867413,0.8529532306,-0.2052071016,-0.2877912772,1.0008096789,0.986019236,0.5358728928,-0.2727698201,-0.3974289949,0.8691311016,0.5037201008,-0.6072428642,0.7116366685,1.1936104507,0.2105038675,0.326717194,0.0472285303,1.2106250041,0.4434182286,0.3106031523,-0.2416383568,-0.5822414685,0.5756253389,-1.1749533391,-0.2236956182,-0.3511180209,0.3026191608,-0.2502783222,0.6069197117,1.2114645458,0.5907337929,0.8086228602,-0.1240179466,-0.8296040772,0.1939634538,0.2373989484,0.0706968955,0.0562571386,-0.9686975237,0.9703032014,1.3188376964,-0.0449196592,-0.766749976,-0.2544782237,-0.677125537,0.044386604,1.0801589063,0.5290276339,1.0928164647,1.00978625,1.0284523159,-0.2731648108,-0.1606985393,0.0582523434,0.3174230482,1.1914730865,-0.4659962116,-0.6700468038,-0.3752887664,-0.9197589367,-0.2198510475,-0.6614025283,0.4657559423,-0.2921224384,-1.0474760897,0.0403493974,-0.8165506804,-1.0544747956,-0.0869994607,-0.1980429001,0.4716709215,-0.2153100969,-0.0730074669,-0.7112305882,1.1530738935,-0.5421391158,-0.6224437555,-1.3728274102,0.1680013978,-1.1597788938,-0.8836290493,0.9074226455,-0.2757415468,0.4567346424,0.7713077,-0.1693980349,-0.2025592803,0.5160160542,-1.0850859543,-0.1707498199,0.2687381764,-0.1743520461,0.5865480881,0.0638051062,0.1092897438,-0.4421404703,-0.8668821903,-0.5019220264,-0.5536066587,0.4482152483,-0.47167385,-0.7809037293,-0.6489815555,0.7825373605,0.5995336485,0.7481728598,-0.3567755937,0.4526237316,-0.9277487974,0.1982038484,-0.4098179871,-0.9934682704,-0.9844086491,0.9344798314,0.8305297538,-0.4466602554,-1.0299179209,0.146710682,-0.7964108147,0.3501074141,1.1649249338,0.2070371646,1.1201605314,0.863114954,0.0953353009,0.512252933,0.6021689333,0.5308978762,0.1271278465,-0.9801842098,-0.4195719362,1.0978767137,-0.0508341317,0.16053451,-0.4361180784,0.6828199017,-0.2105700758,-1.1416241119,0.7691341373,-0.5862681281,-0.6184428009,0.9055534302,0.862733736,-0.6780435178,0.6509873591,-0.8736081326,-0.1076264448,0.0795030347,-0.1277022149,0.4008770857,0.6166134127,0.5842105113,-0.2887045598,0.1208599441,-1.1930658864,0.6230982844,0.3549408782,-0.4350899274,0.1957676323,-0.4150470487,0.6918738089,0.6460333276,-0.7696469337,0.3913299718,0.6226468813,0.0378447829,0.5084882778,-0.7840733333,-0.3017224232,-0.8870405476,-1.0928823097,0.3407942241,-0.07372757,-0.6472569682,-0.2360797801,-0.5395087022,-1.1214918397,0.2303712327,0.190836614,0.066186482,-0.8084170465,0.6372778947,0.4891278935,-0.5193509901,0.8844222965,-1.0888835073,-1.2876585428,-0.6772185124,0.5025782602,-0.2029923398,0.4489521211,-0.6118732215,0.364748357,0.3991896284,0.3298101877,-0.1934170678,-0.0501487989,-0.5360380135,0.0562718867,-0.2981069291,-0.2302796353,0.4255772872,-1.3867691519,-0.1999473721,-0.0248337241,0.2131641022,0.366568086,0.4335411044,0.7011637855,0.3368299036,0.482498297,-0.7425177185,1.1530859682,-0.1268609909,0.7800328174,0.5818548041,-0.6696824381,-0.9416856128,0.8147122061,-1.0402566887,0.2382609993,-0.632672936,-0.9166082077,-0.4549954839,0.699279127,-0.5537655502,-1.3172633523,0.8132016549,-1.1506911925,0.9186919729,-0.3866580246,0.2282484369,-0.3969313363,0.1122082279,-0.7528159046,0.6854481215,-1.1060585591,0.3476036292,0.6146119357,0.4594460965,-0.8927584626,-1.0587027686,-0.3596340437,-1.4154549084,-0.2115352268,-0.8850505394,-0.3794621734,-0.3129169653,-0.4850025472,0.1781736469,0.947410235,0.5906120147,-0.7043473079,-0.4786829767,-0.4115281464,0.5034263661,-0.6441262635,-0.6000132983,0.053601527,0.298794885,0.4749285972,-0.0301993674,0.0124489394,0.074918011,-0.6670005785,0.4466386062,-0.1022241329,0.5260603447,0.8131215724,-0.0227637018,0.0627106723,-0.605824022,-1.1321668494,-0.8508425062,-0.7814027686,-0.8372621377,-0.4411416475,0.2116891556,0.0882531926,-0.6479847595,0.8687652831,0.2403487448,-0.515995455,0.0073330253,-0.0369875976,0.5754243502,-0.5345542794,-0.3220742369,-0.1244877985,-0.4401815572,0.8941099312,0.0570863852,0.9050191725,-0.9694719885,0.0057295519,0.5719103543,-0.6311465276,-0.5546569768,0.8699927847,-1.0723964946,-0.1185425832,0.6369236436,0.7341002065,0.1078266181,-1.4621342953,0.4943097707,0.679351783,0.0551157026,1.4144076384,0.5893141736,0.4373984961,0.3878668163,-1.3474827276,-0.891070798,-1.0262921571,0.2364770215,0.0745408538,0.3076321987,-0.0430740014,0.1889557131,-0.7009886374,0.1097541009,0.7026367863,0.5661698986,0.4130304437,-0.1042936348,-0.3903786225,-0.2349759189,0.3950329863,-0.0288019968,-0.1957889773,0.7124720219,0.9331729881,0.2461141016,0.6006915671,0.6571969164,-0.2271231989,0.298532469,0.7106992258,-1.153687074,0.2617462541,-0.3178588937,-0.3246076805,0.393466166,0.5930554654,-0.5052539823,-0.5042772556,-1.0463039476,-0.7188846072,-0.9217562452,-0.3188488782,-0.0449425807,0.2632942326,0.5697490249,0.7492864696,-0.8263269515,-0.6873104768,-1.0624754045,-0.3348356136,-1.2210847368,0.5200939468,0.0732029186,-0.3433158505,-0.272924628,-0.1162520526,-0.305804526,-1.2815068743,0.2597338069,0.090275856,0.1182806612,0.7951824585,-0.0879382383,-0.2658610373,0.6914497708,-1.1105849656,1.1564558479,-0.1465549219,0.2566395123,0.4904679373,0.3076592173,0.1877008021,-0.0164637736,-0.0535591787,0.2696309856,1.2552003343,-1.0233134873,-0.3386470976,0.270087598,0.3118631963,-0.180555426,-0.1043187942,-0.8676434478,-0.5839799887,0.9255774276,-0.430763816,-0.0757211422,-0.4071487842,-0.2283942032,-0.1702315071,0.6285090505,0.8897640199,0.7882177492,-0.1635497846,0.7615702856,0.2167478336,-0.5315762104,-0.8845725282,0.1774422721,1.102018643,-0.11606337,-1.1650058919,-0.0485559591,0.4144485505,-0.3665001192,-0.5539568285,0.4347949023,1.0325200134,-1.1354570929,-0.3221584448,0.2299978484,-0.2556562157,0.0823334101,-0.4045348067,-1.0541807935,-0.7844687639,0.8123442546,0.004645978,0.4402109154,0.9569417558,-0.4024133143,-0.8116979574,0.6337095284,-0.0343695019,-0.7842292497,-0.2164642022,-0.5349892398,0.2932160566,-0.4722506706,-0.2691691124,0.1148552935,-0.1809926726,-0.7250511796,0.5037894394,0.1079612503,-0.7652560845,0.0026048235,-0.2183914413,-0.4451334117,-0.7383361349,0.323730537,0.2547732244,0.2991405042,0.2819712315,0.1087227852,0.0521391781,-0.032176033,-0.7350418891,-1.0943925601,0.474007857,0.5540834032,0.2908070043,0.3621085281,0.8869388948,-0.4442163095,1.6660882853,-1.485352216,-1.1388868543,-0.3746522419,0.1834127787,-0.0221324611,0.1893196822,-0.698393867,-0.7379954621,0.3384572898,-0.0651676011,-0.5359472592,-0.873926825,-0.358750444,-0.6254604594,-0.481970627,0.4522455623,-0.0125506748,-0.658162274,1.3489454718,-0.6565176461,0.6829919354,0.6887903976,0.9305890664,-0.5795399806,-0.0212295121,0.7622400702,0.7072141828,0.0563294109,1.3686013955,0.2422625064,-0.1394956497,0.212198696,-0.2294523221,0.7767889177,0.2870716916,-0.2972451213,0.1743347542,0.8448787481,1.3360454478,0.7053026554,-0.0875371377,-0.208928781,0.3742782822,-0.0501134945,-0.4252826798,-0.2279789067,1.1809224358,-0.6312875852,0.2810981267,0.1805251321,-1.0718918194,-0.4862049459,-0.7706245207,-0.7789826506,-0.2297185035,0.2912515435,-0.1597454583,-0.304427816,0.4666033487,-0.8810381579,0.535544331,0.2525080428,-0.0808797685,0.7061185839,0.313723369,1.2518961727,0.3858407058,-0.2153960538,-0.3396707492,0.4321801548,-0.696086686,0.6294831102,1.4218509517,-0.8044962638,-0.1506068344,0.1886226469,-0.0365034097,1.0810343769,0.5086530362,-0.9622995329,-0.5528292484,-0.3634453709,-0.7433691758,-0.2112982887,0.2629729095,-0.7495496435,0.9822749949,0.3098709905,1.0757193461,-1.0887535575,-1.0608285307,-1.4652661661,0.4332226062,-0.5875858299,0.0327933928,-0.2137648326,0.7837206823,-1.2712862673,-0.2377380197,-0.1792792576,0.4558514589,-0.4072876143,-0.2615733482,-0.5025430899,-0.6432713954,-1.3834113207,0.8177491968,0.543953509,1.2090445063,0.6109433616,-0.3940650557,-0.3529443382,-0.0502578289,-0.5875516795,-1.0149143108,-0.1449268533,-0.2308691119,1.0580869018,1.0331476726,-0.4415082009,-0.4337739396,0.1459452786,-0.7442686186,-0.4336133483,-1.0340421855,0.1828993235,-0.4008210662,-0.6948154166,-0.8811307558,0.7244173274,-0.6566560191,0.3016976196,-0.02617043,1.2094782993,0.3339824118,-0.5737017557,-0.9451411999,-0.2421648782,-0.5507365679,-0.1134790143,0.0669610543,-0.6733081039,0.1726413523,0.460718964,0.0720386805,0.3432085027,0.9494630837,-1.0808328429,-0.2710907626,-0.8736816057,0.7477603271,0.6231113024,0.5941161603,-1.4515051163,1.1765191423,0.3033341035,0.0567924505,0.420193974,-0.0311455744,-1.1789163018,0.0779523786,0.3019645891,-1.1926332464,0.6691955153,-0.3937055487,0.0418009525,-0.3460505167,0.2100304799,0.1052932327,-0.0438639704,0.2426162556,-1.1361953176,0.9143712582,0.8698281887,-0.3087163444,-0.5741173059,-0.8396185751,0.0975941357,0.3878188943,-1.036435116,-0.1640903391,-0.0912276296,0.0729057911,0.0315779199,0.4626910467,-0.604367525,0.6641363555,-0.5159077949,0.0489520281,-0.4217336467,-0.1069603864,0.6565357859,0.178820138,0.4030369407,-0.0858889348,-0.9256337489,-1.0327149691,-0.7787715753,-0.0734703165,-0.104086831,-0.6388634916,0.4309047921,0.3608078754,-0.3443581522,0.6635752363,0.6342495436,-0.7532656974,-0.4835824075,-0.2776761064,0.3175298662,0.2077086819,0.6338514539,-0.1800596324,-0.5588571017,-0.7227725432,-0.8743182747,0.327104606,-0.1803065638,0.7785908214,-0.8026960212,-0.6860917186,0.8782884937,-0.378807517,1.3971265775,1.6127306778,-1.0256162533,0.5757962537,-0.0227382968,-0.3010207779,-0.3178200732,-1.1289906913,-0.5835148231,-0.5629245243,-0.0262164119,1.0924844962,0.7861250397,-0.3265513034,-0.4908941495,0.1286916218,-0.1256784226,0.8777298613,-0.7216860367,-0.1626049877,1.6339233892,-0.6649171173,0.7186740123,-0.1452194089,0.2505213376,-0.2393561978,-0.3092143157,-0.0828973758,-0.2186054376,-0.1805919357,-0.016676428,-0.5759047004,1.0959379678,1.1368021924,0.1393135736,0.7973088724,-0.7244548307,0.2237194648,-0.4725021532,0.8803213275,-0.3167134666,0.4197324369,-0.8992485848,-0.2352037308,1.1702822029,-0.2067968022,-0.9006340965,-0.6051955299,0.1195434344,0.1877515681,0.0386519874,-0.0595638281,0.0059585422,0.8469512543,0.3943803622,0.2092026858,1.4281623281,1.2950256206,-0.4992223137,0.5439429289,-0.128352311,0.1290954799,-0.5528925379,-0.4425592557,0.1683215586,0.1757458802,0.832196072,-0.248259848,-0.3140044971,0.137920462,-0.1323115232,-0.8497332846,-0.0264917169,0.7190824158,1.0963230388,0.5313718039,0.4139190849,-0.4085497464,0.1327591852,-0.2815754362,-0.2565218279,0.2518120018,-0.1337750002
biasActivation=0,1,1,0
[BASIC:ACTIVATION]
"org.encog.engine.network.activation.ActivationLinear"
"org.encog.engine.network.activation.ActivationReLU",0,0
"org.encog.engine.network.activation.ActivationReLU",0,0
"org.encog.engine.network.activation.ActivationLinear"
