encog,BasicNetwork,java,3.4.0,1,1724796629743
[BASIC]
[BASIC:PARAMS]
[BASIC:NETWORK]
beginTraining=0
connectionLimit=0
contextTargetOffset=0,0,0,0
contextTargetSize=0,0,0,0
endTraining=3
hasContext=f
inputCount=7
layerCounts=2,29,15,7
layerFeedCounts=2,28,14,7
layerContextCount=0,0,0,0
layerIndex=0,2,31,46
output=0.4156242681,-0.2740813591,0,0,0,0,5.8436929998,0,0,0.0230273396,0,0,0,16.6825242395,0,0,0,0,0,0,0,0,0,0,0,1.2728515515,0,0,0,0,1,0.6124843304,0,2.8273963066,1.5333335593,3.3451963783,0,0,0.017385758,0,0.4301037084,2.7860630556,1.1623177444,0,0,1,0.4156445183,-0.2740673298,-0.0461114944,0,0.52119689,-0.0855288268,1
outputCount=2
weightIndex=0,58,478,576
weights=-0.0124931686,-0.0288706631,-0.0033944914,0.0151916173,0.0195052346,0.0820417014,0.0096085739,0.0192828794,0.0116899878,-0.006249948,0.0115555091,0.010724481,-0.0062773876,-0.0062164395,0.0029817511,-0.0251800948,-0.0044308713,-0.0352065866,-0.0277868387,-0.0139549285,0.0039548691,-0.0063494369,0.0121349243,0.0445723413,0.0003569974,0.0247830226,-0.0056762335,-0.0305904111,0.0568343242,-0.0194671464,0.000809998,-0.0104187809,0.0085379414,-0.0037108201,-0.0473291973,-0.0325688689,-0.0249990531,-0.0850132407,0.0980433562,0.0039523664,-0.0145845414,0.0272498318,-0.0230680854,-0.0470420512,0.0298513113,0.0386919634,-0.1113419378,0.0015293306,-0.0263157659,0.0036385813,0.0461348228,0.0092939926,0.0018102747,0.0094116795,-0.0272806414,0.009088094,0.0698330088,-0.0130795616,-1.3881733682,-1.6909007417,-0.5291097181,-2.1153613668,-0.4665055251,-4.2769358931,-0.8181280843,-0.1480200216,-0.8382065562,-0.1732957393,-3.4045870291,-1.4821616154,-0.6951157613,-1.1766270533,-0.3014005472,-3.1494809252,-1.3346807093,-0.0139873637,-0.3512480262,2.0151595831,-2.2156692283,-0.9354368305,-1.0966219663,0.2176540872,0.3837194487,-1.8417091299,-0.0045187153,0.4706310782,0.1322667562,-1.4300927007,0.348777199,-0.5048804852,-3.1092176,-0.9006937233,-0.2361084887,0.268333398,-2.5074291969,-0.8332997573,0.7289765835,-0.7904430303,-0.8651114994,-1.0168876969,0.6209883014,-2.0344928158,-0.115239048,-1.0113415756,-0.6196394075,0.6581947306,-0.9695309807,1.0965791275,-2.4510065096,-1.2415837704,-1.1161391173,-0.5804238348,1.6266272416,-2.1195032636,-1.0136785093,-1.3885183101,-0.4612967154,-0.5673213667,-1.4442316343,-1.610840354,4.497031622,-0.1385990335,0.3058131195,-1.0791561889,2.9004121187,-1.4403152458,-5.3709441377,3.3413264113,-1.9969138878,-1.3149818953,-3.1396305392,0.2909782862,-1.1187456696,-0.4013652773,-2.258329027,-0.8447724189,0.9774100009,0.1703743744,-2.413569994,0.618030151,-0.6932602062,-1.0544893154,-0.820599554,-1.4972312807,1.3448016416,-0.8744625242,-2.9376671662,-1.7906687022,1.0340758081,-2.8353325543,-0.9404897655,-0.9846523573,-1.2358697674,0.1018437178,-0.0037591428,0.5431187984,-0.1120676054,2.0415847969,-1.3476480173,-0.6740017248,-0.2586864176,-1.4203727217,-1.055540843,-0.9986902764,-2.261546753,0.1213979371,-1.7883807943,0.9895280388,-2.9606726185,-0.3798809308,0.0140466901,-0.9150429253,-2.3966565838,0.4244586357,0.4643223685,-1.643463771,-3.9137311413,-0.9682573594,0.3074444763,0.110195975,-2.0932710066,-0.0134265232,-0.5841711166,-0.1318693631,-1.005038047,-1.1151213696,0.4102926152,-3.3893790375,0.6742007842,0.5097399575,-0.2511544041,-1.3181920091,0.5097266986,0.2009888621,0.1202837678,0.0480185864,-1.140539629,-1.1106128654,0.0302804432,-0.0724417309,0.172806142,-0.2032507555,-0.4998561693,0.0935323549,-0.8227117665,-0.6917523455,-0.1767644924,-0.4953145354,-1.9562338897,0.9552004958,-0.2229524492,-0.5802954591,-2.6998717059,-0.9330203903,-0.6024908142,0.7231378282,-0.3575066104,-0.1814498966,-1.5088478626,-1.4517004362,-0.5172415892,-1.6577568758,-1.0690865911,-1.6803017166,0.0352027249,1.4225423426,2.7620512144,1.1259429287,-4.1945583709,0.9264669938,-4.640502819,-3.9385070556,-1.4936200931,1.3514084836,2.854751552,-3.3039315775,-0.541954204,-0.672292285,0.0506044026,-1.0331175352,-1.9692584951,1.5507885837,-0.9630851569,-4.4364289517,-0.3559224701,-3.0490581129,0.3759715101,-2.8935932017,1.8009951053,1.6913157344,-1.7768885437,-0.339209222,-2.0602113366,-0.233528741,-0.5799530559,-1.6198196253,0.6636343648,0.3838591023,0.0644378211,0.7200365305,-0.6910903231,-0.1522402613,0.4604148733,-1.6090936738,1.0941634957,-1.7836014916,0.621460958,-1.1869401406,-2.8266962776,-2.0894445035,-0.08780776,-0.558064985,-1.6955452386,-2.7018660621,-0.7634308774,0.1101084724,-0.8378394898,0.5046396877,-2.1664061616,-0.9098542992,-1.4560120131,-2.0707989995,-1.2516973619,2.494696817,-2.2095358123,-1.6065851001,-2.2677035449,-2.6231681368,-0.2168309603,-0.8410619973,0.600383122,0.0056740329,1.0309260406,0.1768980605,-1.0328875167,-2.0016064069,-3.0335344485,-1.7312422812,1.32986351,0.23923756,0.6553880626,-0.6693811342,-1.3584589836,-1.5700038596,-0.4175485772,-0.0434307408,-1.1794387551,0.3855301088,-0.4701246518,0.7863306025,-2.8451261661,-1.5218167517,-1.5307289852,-0.0952396611,-0.2172259478,-0.3841153373,-0.518132504,-0.3700916817,-1.7218758195,-0.7522056845,-0.6792130559,0.1919788653,-0.2152414596,0.1867918437,-1.0867365293,-0.2717767088,-1.8017311269,-1.2788383285,1.2282953331,-0.4073279324,-5.5767092258,-1.1225036089,-1.19224235,0.6592105901,-3.8343252153,0.7974388012,4.2868720709,-2.3851984333,0.7633875439,-0.3604443335,2.9833648577,-0.0986911951,-0.4453292728,-1.6186471022,0.7483941245,-3.428706926,2.9837237049,0.0922884433,-1.1859161574,-3.7824043428,-4.5628515715,0.3285633731,-3.9561299251,1.6555602179,2.4388018075,-0.8928970476,0.311376246,-0.0726778124,0.282077113,-1.6413027327,1.1461415389,-5.5004072091,-1.6357921662,1.897182183,0.6690921331,3.2448988585,0.2071132254,2.7115396753,-3.2753154094,-3.2033360971,0.6041393121,-1.4510404554,-1.8542512871,0.8572127733,-1.2480761854,0.259320007,-3.6659548899,0.2563906099,0.5638930979,-0.1025288813,1.1638323912,-0.5757559396,1.9845240749,-0.7859072323,-1.6163442808,-1.2758370629,-0.1816032822,-0.2869510979,-3.2959037959,0.7644326613,-0.0820273094,-3.470338248,-0.90977348,-0.820970887,-0.1860081222,1.1612890591,-0.5095626155,1.6247108812,-1.8698422651,-2.3705981355,-2.1105832044,0.1610455813,-1.5145262492,-1.2018785007,0.5045794235,0.9432450109,-0.8221656654,0.1786750333,1.0534304647,-0.8891084889,0.0484742117,-1.5759619836,0.5961168521,0.3729480815,-0.0533366782,-0.649148135,-1.4197743191,-1.2316465526,-1.9669083201,0.7044069677,-1.9422326102,-5.2295382221,-1.7779332045,3.0223749436,-1.0399868686,2.2701094365,0.7083676446,0.4314086208,-1.4518301816,-3.4392383881,1.5834121507,0.039854595,0.675247964,0.52866012,-1.47579641,0.3579341076,-0.8709173138,-1.2244589843,-2.5908647185,-0.6166434079,0.3645907028,-1.5184337135,0.3623100768,-0.3163837738,-0.5365117582,-2.1625310485,-5.0689460169,-0.6204579796,1.5285738606,-2.6011774158,-1.2902758751,-4.1621991022,-1.2377230329,1.4732826282,1.1652622902,1.9802283505,-0.0310732168,0.7967247198,0.050182216,-0.9513317324,-0.7380025318,-1.9824679687,-1.8661873483,1.020925779,-1.4412111368,0.8336443062,-2.6092615888,-1.3349688214,-0.3640946124,0.7232758294,-1.0840304749,-3.2421173448,2.4026930036,-0.2201327536,-2.551719079,-0.5924921388,-1.8887584818,-0.643121341,-3.2670598151,-1.0479725654,1.5107213333,3.6200241893,3.5572652145,1.2769760464,0.0080178664,0.2993864164,-2.9709323774,-1.1647046503,1.9643062769,-2.6899766945,-1.0338876119,0.2892366122,6.0189145462,-0.5233045064,-1.031726308,0.0427606472,-0.2823696318,-1.1305814294,0.1849693961,-0.8185113916,-7.0787151186,-1.8061911732,0.1016152045,-0.8786716834,-1.6911576056,0.1638508097,0.7592255864,-1.8832631426,-1.4924533035,3.2919423681,2.712866071,-0.7584018875,0.9662207486,-3.3280345021,1.5856142103,1.621800083,0.8073031014,-4.2132693721,1.6163546045,-0.3697034193,2.1828709696,2.053946243,0.2608668181,2.8889321153,-1.2988719905,0.7541959564,0.0341184585,1.3014228611,5.3562016006,-2.2444506675,0.5585086236,0.2970927224,-2.6062372565,0.4631192623,-4.8773178647,1.1811074392,-1.103746288,-0.9690735854,-1.1624723778,-0.7723460351,0.3333323375,-0.2171016869,2.5651146437,0.7098426421,0.9241239679,3.0690012915,1.1866790246,-0.2419261448,-0.4056055955,-1.1599549042,-0.5806393564,3.7439656175,4.6682955333,-0.3451297132,0.1470199461,0.9654909284,-0.7252690597,3.0642956853,0.8829441905,3.375287116,3.1705959402,-0.7845142258,-3.4394399608,-1.8999055173,-0.0237903571,3.0094767921,1.2630436004,0.9337280541,-0.0310630338,-1.6217038761,-0.7625137945,0.915176276,-0.6591240748,-3.2494558202,0.026651006,-6.5682317303
biasActivation=0,1,1,0
[BASIC:ACTIVATION]
"org.encog.engine.network.activation.ActivationLinear"
"org.encog.engine.network.activation.ActivationReLU",0,0
"org.encog.engine.network.activation.ActivationReLU",0,0
"org.encog.engine.network.activation.ActivationLinear"
