encog,BasicNetwork,java,3.4.0,1,1724377895405
[BASIC]
[BASIC:PARAMS]
[BASIC:NETWORK]
beginTraining=0
connectionLimit=0
contextTargetOffset=0,0,0,0
contextTargetSize=0,0,0,0
endTraining=3
hasContext=f
inputCount=6
layerCounts=3,13,37,7
layerFeedCounts=2,12,36,6
layerContextCount=0,0,0,0
layerIndex=0,3,16,53
output=0.863139456,-0.7007247936,1,1.1211947341,0,4.6729323106,3.6530857553,0,0,7.8792457599,11.48979766,7.3400303507,0.2914301129,0,0,1,0,0.1329587816,0.0511133899,0,0,0.2735861483,1.4006339711,1.2743445922,3.0827548398,0,0,2.55545121,0,2.8099776596,1.7092221601,0,0,0,0,0,0.8237015421,0.0067759168,1.4439960567,0.7758266957,0,0.2522198005,3.8434566772,0.1223571996,0,2.9030281481,1.2414649009,2.6281808148,0,2.3903414029,0,0,1,0.6147670445,-0.9759434823,-0.5377450864,-1,0.4541659809,-0.4258774192,1
outputCount=2
weightIndex=0,26,470,722
weights=-0.0315958229,-0.108587843,0.0060617425,0.0666624512,-0.0708534997,-0.0301197067,0.0685715263,0.0605070407,-0.1043251683,0.0673630776,-0.0437161123,-0.0628154264,0.1373672868,-0.2116537487,0.1055001984,-0.0466733858,0.1710480887,0.1328424013,-0.0094634963,-0.0632554074,-0.0023847729,-0.1233084034,0.0631143592,0.1210958914,0.0083065583,0.5422953137,-0.9273281778,0.5315035442,0.27001576,1.6594726883,0.8326524181,-0.2870450842,0.2560439021,0.4150417214,0.5132859844,-0.7640695991,-1.4434529204,-0.5703253548,0.0661389764,0.5767202134,-0.5688810398,0.4313677135,-0.6448306973,-0.1471422684,1.1075774309,0.5286088443,-0.8202150232,0.1380481906,0.708809968,-0.6668188905,0.1187508343,-0.1881892277,-0.5372142517,0.2197787575,-0.0328928571,-0.5137650223,-0.7768073988,0.7983530806,0.6231346454,1.0544114112,-0.4884604173,0.6298523427,-0.4543361019,0.9425066642,1.2559643447,0.8915905408,-2.3458116108,-0.5483119192,1.2010724246,-0.4909778169,-0.4991315843,-0.4335414454,-1.0690870573,1.5959188896,0.1397540287,-0.203295255,-0.9899343558,0.4762787547,-0.3558025048,0.7566148772,0.5386201332,-0.9064478297,-0.4573959284,1.0620574257,0.8532161428,0.3979957518,-1.3507522992,0.0153386632,0.5117406787,-0.3023252299,-0.6137810057,0.7881331664,-0.1542514707,-0.1641853596,0.4920112551,0.1147283403,0.7122005176,0.2740405635,-0.5024670764,-0.8035446739,-0.3941754405,-1.800653242,0.1287263936,1.8372467426,-0.4554702982,-1.8616710664,0.2147405594,0.2520176212,0.9629574549,-0.2932378663,-0.4773340039,-0.3838066334,2.0138673758,0.4649147747,0.6737813323,0.5860099734,-0.3044632312,-0.4878428838,1.6117172196,-1.234569104,-1.1429882437,0.0942596838,0.9451593718,1.1595134281,-1.7837351052,0.2006804477,0.405469756,1.5394128734,-0.794232533,0.558574204,-0.487108447,-0.9820615678,1.2618110207,-0.2803941671,-1.2494146136,0.6865978094,-0.5391055874,0.2867249415,1.1425838899,-0.856081025,-0.8115415506,-0.3628079729,1.1603872495,0.4508540057,0.0574382293,0.6715684619,-0.1989194148,0.0023719595,-0.7423665824,0.3719015506,-0.5686044048,0.5979517126,0.5536867845,-0.2905932822,-0.2408185389,-0.6891019419,0.2135100494,0.4507776055,-0.0506675484,1.0933897338,0.5628715924,0.2483224045,-1.0888949632,0.7925133478,-1.2824516963,0.1856607391,-0.5960602242,1.2213503703,-0.6441239916,-0.3775854745,-0.1579095051,-0.2235058604,-0.5814318958,0.2088426716,0.3539627091,0.8371349503,-0.7008202251,-0.4825330842,-0.8456846248,1.5535562332,-0.8345640752,-0.2349379888,-0.3041428181,-1.0831973738,0.5881155094,0.3901016164,-0.8007840289,0.6905815049,-1.250148197,-0.9731385896,-0.6234641012,0.1041631101,0.0383467492,0.5891232135,0.3776878458,0.1015878883,0.7547498164,0.0327121096,1.0033945224,-1.4451284877,-1.063487652,0.0462338404,0.8260885613,-0.2105548094,1.0113373007,-0.5261032007,0.2625689625,0.4277625084,0.9597614506,-0.3123906882,-1.3252529007,0.2509426287,1.5237968984,0.4501194722,-2.1233038952,0.533740334,0.9682620812,-0.3429436187,1.1708474765,-1.0924348768,-1.5684107475,1.7560242557,-1.3187179805,-1.0815795819,-0.9421008906,-0.3215433244,-0.2699662449,-0.2028928642,-0.5585889507,0.3800875039,0.2212565336,1.396909987,0.107849112,-1.3840201505,-0.785729565,0.4773395388,-0.1248121491,0.0842083154,-1.3080357663,1.1899163497,-1.0793479502,-0.0794470069,-0.414593997,0.0537609227,-0.8150890981,-0.390859793,0.0172322941,0.5880425636,-0.114157951,0.0018584972,0.5221049165,1.7431301244,0.31267001,-0.2079765364,1.0911402556,-0.0370913918,0.2461337011,0.2010812942,-1.3304423725,-0.4312130773,0.7513011574,1.0390789337,0.3938074381,0.5917451702,-0.6218258334,0.3095229623,1.3816880949,0.589631396,0.315588491,-0.8295894315,0.1723091026,-0.0340822524,-0.8590024303,0.0791589573,0.876539111,0.3949933764,-1.0719075892,-0.2186605207,-1.2153462393,-0.7533474183,0.0329998414,1.1864611535,-0.7767601566,-0.1547681818,0.5520620952,-0.5304849183,-1.8139555654,-0.6945679754,1.4166446449,-0.8743889107,-1.949165129,1.1816928649,-0.9229615748,1.6530096816,0.836622197,-1.1458715346,0.6864083821,2.1317133675,-0.5617760142,0.860670025,1.0268731917,-0.7225471669,-0.1257580464,1.0586876774,-0.4000568354,-0.0671084839,0.1069276678,0.1709525762,-0.2170652778,-2.0743516495,0.9587911747,1.0246654263,-0.7980347127,0.3704264299,1.3382966811,0.3590828456,-0.5388651005,0.4989559604,-1.0713405097,-0.2689322579,-0.3871615936,0.6183220342,0.5492883405,0.6123842949,-0.0604622806,0.9758599014,0.2106111474,0.0231365448,0.8060255377,0.8914531316,0.0136365282,-0.4346311775,-0.2076461757,0.579992339,-0.245794753,-0.766937095,0.1662573535,0.3227551336,0.5015935912,0.0992524002,-0.2235543215,-0.1535753308,0.3454913513,0.7359429878,-0.8027455584,0.3110519864,-0.8265431413,0.1153476739,0.9748166163,0.6547507355,0.0723580037,0.4712991586,0.2812840439,-0.4498243208,-0.153689615,0.7558473266,0.6208736326,-0.6727494839,-0.2324168942,0.8010876166,-0.0685764302,0.5703751464,0.0143567447,-1.0765788248,0.5161701261,0.5459479582,-1.0858590784,0.9693756742,0.2138887029,0.9331743131,-0.3049946746,0.280797504,0.0081604366,-0.5397700675,0.2482246884,-1.3739261965,-0.4430070576,0.5256485431,-0.6985908339,-0.61993415,-0.9847058834,1.2681703526,1.1991631231,0.1306195304,-0.7641797382,-0.6742391131,-1.4354683874,0.3422270436,0.6972241299,0.5251224991,-0.7029133569,0.8044617936,-0.3378149397,-0.0063402327,0.126460095,0.1344290601,1.1774295101,-0.2242874305,-0.978469803,-1.1279697394,1.0273545134,1.6409984577,0.488699594,-0.2957178204,-1.2833521795,0.828090293,1.6047708885,-1.0654317989,-0.9807101969,0.1097267266,0.7801040452,-0.8128437615,0.6032705412,-0.3299210363,-0.5557457077,0.7124550599,0.0818367201,1.028396077,0.4126201539,-0.1206988108,0.1660955327,-0.6976087073,-1.0379073975,-0.8342043242,0.0650097576,-0.4162226804,-0.5074296156,-0.4066650661,0.7666883828,-1.1920750633,-0.0280438013,-1.0029834828,-0.8853509176,0.106241313,2.1162620208,-0.9166406665,-2.6038514562,1.2373381277,2.0501305642,-1.1264636667,1.4482110052,-0.5784716223,-1.5263740646,1.756948677,0.2390765469,-1.4207029423,-1.040055898,-0.4877112511,-0.9995366595,0.1454846963,0.755950133,-0.1174280037,0.5816764912,-0.011625041,0.5141273991,-1.3636356962,0.1074616407,0.8703021503,-0.4204528041,-1.151742615,-0.1237475245,0.8380380745,-0.5953991893,-0.4297828038,-0.2557355858,-1.4295195495,-0.2306980843,0.6064990019,0.4094937754,-0.5572675114,-0.6001819604,0.9146342934,0.4482832147,0.3879043416,0.4839673435,-0.2872510831,0.3430519107,-0.0916418323,0.0948165019,-1.3332666496,-0.8343043022,1.306528055,-0.5765210708,-2.1083401412,0.4864631304,0.5164665952,-0.2452138149,0.05279666,-0.1442126554,0.5907189751,0.4940941603,0.062325332,0.1297469728,-0.2384700111,-0.7525201369,-1.7608439598,0.2401580141,-0.9710025226,-0.1243359533,-0.8386439976,0.2517039866,0.535933124,-0.6458103133,0.237157437,0.2725961823,0.0535667384,0.0935587187,-0.2598815455,-1.4623560152,-1.3948938007,0.7391326133,-0.3218502684,0.3379828431,0.6178162943,-0.8593576751,-1.7622201806,-0.1865306169,0.2616335021,-0.2323808168,-0.8541329066,-0.0784428752,-0.3978569737,-0.4659432238,0.1430373174,-0.3587662565,0.8252352352,1.3488098516,-0.5015680825,-0.704364113,-0.5062178498,0.9399653422,-0.6487419055,0.1758834666,0.6146295577,0.2026159704,0.1268712899,0.9257500103,-2.080193663,-0.2737325675,0.0268441723,-0.0320130651,0.1281002139,0.1344416339,0.5869237823,-1.3630170678,-0.2582754509,-0.7953052138,0.4415890798,-0.7515059034,0.9472088655,-1.0051964016,0.0249085972,-0.0016857465,1.042675709,-0.7494934185,0.963811464,0.4845387011,-1.1550621075,-0.1562094717,0.9818519388,-0.8389820496,0.8368350112,-0.6195643394,0.1378436113,-0.9485473125,0.0730402423,0.1796098954,0.8597605118,-0.0875861372,-1.1792086843,-0.0017279798,-0.8340919564,-0.957876421,0.0518122309,0.2343122315,-0.1887429887,0.7793936087,-0.3639943133,0.9157248523,0.276457314,0.208523996,-0.6905550304,-1.6304888247,-0.1355106859,0.0724203755,-0.0694358301,-0.6990931966,0.2407824131,0.4396695773,-0.399328881,-0.2976861409,1.1283539802,-0.6567017506,-1.3539886628,0.1553760458,0.3240606924,-0.109805019,-0.089927109,0.6704411852,0.716226826,-1.6522559344,-0.2805748337,0.4978784808,-1.2552822205,0.282758523,0.722354289,0.1649361848,-0.5740500032,-0.2028839994,0.4274569227,0.728877697,-0.424905622,-0.2712221768,0.7539492103,0.8580315507,-0.1877533455,0.0993800624,-1.3615894422,-0.3902496836,0.0536954713,0.2845816593,0.1124707061,0.1236353033,0.778001832,0.4079640136,0.0049488833,0.6103504473,-0.6593068553,1.3829034853,0.0534146419,0.2616108339,-1.3487149631,-0.0921805736,-0.6698681285,-0.6596722554,1.3410914944,-0.0205263867,-0.1226972575,-0.4676383184,0.313231358,-1.0652959844,-0.4663364711,-1.283246998,0.613870778,0.1619792651,-0.3228521815,-0.7635433068,-0.3960868472,-0.1687370719,0.0514927788,-0.5944886444,-0.9527656126,1.2563412831,-1.0407954252,-0.5455801568,-0.593097938,0.8990155073,-0.7578594222,0.4378083388,-0.1034861828,0.3898555321,-0.1983064931,-0.6753634607,1.6878418889,0.2363304696,-0.8814589685,-0.5862318492,0.9719077176,-0.1652412457,-0.1853664687,0.1268795688,-1.1006706891,-0.4148485218,1.1541366972,-1.0472093836,-1.0350043553,0.0426235011,0.5389069924,-0.620060808,0.1487240058,0.2158332836,0.9406996555,-0.4903509547,-1.0241735729,0.0681633083,-0.1498246719,0.6442283019,-1.0099234216,0.1329871577,-0.4534469306,-1.7414303368,-0.2477220194,-0.4938905568,1.2957351895,0.378076097,1.7115037451,1.2300098752,0.4247716738,0.4488291398,0.3632482389,-0.2417755781,0.0734890384,-1.2319994478,-0.3191100747,0.4722808654,0.4982130075,-0.1547393417,1.1513086033,-1.3639088457,0.5955405671,0.7090469843,-0.7100571846,-1.21738211,-0.4097921663,0.0289540135,-1.3188706073,-0.1901183934,0.793462844,-0.0088815237,-0.9453698711,-0.2515533319,-0.0943563035
biasActivation=1,1,1,1
[BASIC:ACTIVATION]
"org.encog.engine.network.activation.ActivationLinear"
"org.encog.engine.network.activation.ActivationReLU",0,0
"org.encog.engine.network.activation.ActivationReLU",0,0
"org.encog.engine.network.activation.ActivationLinear"
