encog,BasicNetwork,java,3.4.0,1,1724376189732
[BASIC]
[BASIC:PARAMS]
[BASIC:NETWORK]
beginTraining=0
connectionLimit=0
contextTargetOffset=0,0,0,0
contextTargetSize=0,0,0,0
endTraining=3
hasContext=f
inputCount=6
layerCounts=3,13,73,7
layerFeedCounts=2,12,72,6
layerContextCount=0,0,0,0
layerIndex=0,3,16,89
output=0.4300570896,-0.0882272907,1,0.5053780849,0,0,5.8790999713,0,0,4.6394877464,0.4692025406,0,5.9992505014,0,0.4650472741,1,0,1.133446371,1.2607989872,0.8641544508,0,0,1.3205605545,0.9015900967,0.5040316095,0,1.8918766075,0.4532968411,0,0.0907022986,0,0,0,1.4990096682,2.3655770586,0,0,0.0588636383,0,0.3147936006,0.2038209693,0.0841234979,0,0,0.5204837252,0,0.1951179678,0,0,1.0850313565,0,1.1232468309,1.2424545617,1.3515458109,0,0,0.1165428881,0.0108249288,1.2196199482,0,0.8073641208,1.8108110129,2.3471723127,0,0,1.1366719167,0,0.8432497135,0.0333510025,0.6801471437,1.2783684452,0.7034180538,0,0,0.2726260519,1.6751512092,0,1.8660057921,0,1.3880067632,0.4947398004,0,0,0,0.2200940234,0,1.3752127174,0,1,0.271439233,-0.4839136773,-0.5972171227,1,-0.8012817717,-0.4121596281,1
outputCount=2
weightIndex=0,26,902,1406
weights=-0.0012982663,-0.0286592323,0.0371581994,-0.4666137609,-0.0477782405,-0.0040442625,0.295669059,-0.016222746,0.0007555771,0.3589585197,-0.0451982106,-0.0666373743,-0.3126540521,0.0413303239,-0.0163291871,-0.0192662828,0.3599551017,0.0001315858,-0.0137709242,0.3342339981,-0.0596427585,-0.0074785697,-0.6425016231,-0.0266985231,0.0901271269,0.0646001706,0.9169023742,0.4109316925,0.3473268931,-0.4680846876,-0.1254860251,-0.0407575452,-0.2764266874,0.4916807791,-0.3083556827,-0.7934817201,-0.3295712973,0.3850777881,-0.5209507554,0.3594625278,0.6850979907,1.0342797013,-0.4594405338,-1.0339642846,-0.6464922752,-0.4692404245,0.9729263295,0.718906407,0.6444657759,-1.3802092996,-0.674785264,-0.4625506679,-0.9778398953,-1.1928579104,0.8211628939,-0.1025465299,-1.1640649524,-0.5372184532,0.1887095575,1.2288122004,-1.1332560303,0.1157362977,0.2554939552,0.9504436482,-0.2722317912,0.0943925075,-0.8620732862,1.0029739984,0.1939224764,0.8312162765,0.5932974274,-0.2435968523,-0.7951880754,0.0928031384,0.503812492,0.9385146634,0.4530453031,0.8321892171,-0.4279339917,0.5388274477,0.6406626995,0.4091553099,1.0676111792,-1.3188289727,0.7845092751,0.7005932422,0.3307318821,-0.8019754748,-0.4376122722,0.2558186446,0.4833397532,-0.6934511858,-0.2279869093,-0.3738172511,0.4519668552,0.8627006817,-0.9608660968,0.2247031331,0.072828613,-0.0841111175,0.2420556634,-0.9256330053,-0.3338628378,0.153275724,-0.2481126665,-0.3567853861,-0.1134315288,-0.1532404653,1.1066661186,0.7132541551,0.2883722095,-0.0654948035,-0.1908088591,-0.3940716002,1.1070359736,-0.0652815697,0.2495199465,-0.5437325936,0.404598388,0.9100525249,-0.2856830994,-0.1024972733,1.2902813108,0.3743684342,-0.3552576491,-0.1052065145,-0.4124611303,-0.6186267634,-0.1364693372,-1.577582703,-0.5057370586,1.1469018911,-0.598374963,-0.9513291396,1.1747213226,-0.5194072976,0.5066502198,1.2058367638,1.0075817714,1.2489838685,0.8709748348,0.4621259262,0.0264248761,-0.759368217,-0.0993802265,-0.571655179,0.9101106945,1.1756843531,-0.1273268424,0.8386317314,1.2645555846,-0.3885339108,-0.0925688534,-0.7077117325,-0.2503645152,-0.3605391645,0.5241083504,-0.9378162547,-0.8943824644,0.8017482631,0.081814227,0.4391874106,-0.7118917901,-0.3474808622,-0.0502351657,0.0061409489,-1.5319777381,-0.7233236402,-0.3627004114,0.2210939326,0.6842287928,-0.25549079,-0.6864795665,-0.3391519359,-0.5815008133,1.1110600195,-0.2788081464,0.6514269107,0.0228434738,-0.7912196767,-0.4599617432,0.8023046261,1.1021602651,0.6448511233,-0.9733234003,-0.5120473021,-1.0122132236,0.9155396583,-0.5150181168,0.376741757,-0.9310333056,0.3910195009,0.4661046767,-1.0370450864,0.1722302232,-0.2877893622,0.5010023357,0.7655079792,0.5110874442,-0.2278321462,-0.5428313451,0.9115347622,1.8538571502,0.0376477066,-1.0077576492,-0.6802899092,1.0154167869,-0.3354172431,-0.9945805947,0.3205300735,0.2483529292,-0.4426807165,-0.6620504173,-0.8993412859,-0.8731681688,-1.3807004066,0.3152781161,0.3087249116,0.5909918669,-1.5937312282,-1.0110404453,0.6384449636,-0.8686145661,-1.3847358344,0.3430676984,-0.2122861681,0.418556854,-0.4820863429,-0.5299249402,0.1944948161,0.9946463466,-0.3936933444,-1.1144619952,-0.0168299725,-0.4818587027,-1.1032861667,-1.1695421258,1.3606561267,-0.0701973019,1.0473246428,0.6012067062,-1.2383325609,-0.1419827285,1.6298094562,0.7720536868,0.0385170697,-0.101041025,0.8532717272,-0.960919192,0.4306547286,0.4732984132,0.4376090944,-0.8935987116,-0.2316729986,0.0028858542,0.7705928825,0.2430589161,0.6492200686,0.6648190333,0.8490187959,-0.9878186593,-0.2447481282,0.7108365922,0.7115339119,-0.6099555847,0.4985624633,0.8914640217,-0.5013248776,0.8573264708,-0.8341132126,-0.9444001199,0.5643231184,-0.8342672013,-0.5997638781,0.9927162531,-0.5055944379,0.4335427847,-0.2523625776,-0.2740020737,0.8785373811,-0.1374932234,0.1344350324,0.2906222744,0.6445761474,1.0307815593,-0.4185279914,-0.502184084,-0.1019672802,-0.0527284011,0.024686596,-0.0208877511,0.2389725428,0.1387369083,0.5747484868,-0.3615424062,0.6941955399,0.7617238286,-0.6745846461,0.4566474637,-0.4346966309,0.4581256342,-0.6508491732,0.5148856457,0.6597649454,0.5018545501,-0.5579757121,-0.1045852756,0.1843741314,0.2503730319,-0.1979296166,-0.6468367658,-0.5034307817,0.3229308073,-0.3111835906,-0.5771727986,0.4816856382,-0.0604474238,-0.3738831563,-0.0808279146,-0.4526400915,0.5784752985,0.0934153958,-0.8670170252,0.6480536977,-0.8509067062,0.3315071837,-0.4729547043,-0.8763161747,0.5379337704,0.1381571412,0.6571486585,0.7325488211,0.29486918,-0.3257578004,-0.0746400559,-0.7196077669,-0.5554182747,0.2923080838,-0.6021454309,-0.8886792781,-0.2580248219,-0.570696816,0.3228587485,-0.014519084,0.3175117851,1.0798480436,0.1823210183,-0.8676572802,-0.5243769212,-0.067204693,0.2411548728,-0.7450731637,-0.7122180948,0.4592458102,-0.6181338598,0.8092951111,-0.8996703756,-0.4320324636,-0.9706155157,0.793158493,0.2586867763,0.504306171,1.0035366822,-0.7139364656,0.0996874401,-0.6476037292,-0.1430723436,-0.3756817685,1.0810414626,-0.4273646476,0.41751812,0.1987238832,-0.6244651749,-0.1893843931,-0.0460932009,-0.6000266138,-0.1679062732,-0.227779673,-0.1308279351,0.0090961851,0.1175465209,-0.9695214651,-0.0429916663,1.0334876435,0.4553957475,0.2159987712,-0.5497599547,0.445904724,-0.2504616142,1.0161004304,0.2023717808,-0.9917685697,-0.3554754492,-0.4075754116,-0.0374399719,0.3171577369,0.3888937917,0.2171369205,-0.2456730752,-1.2221993035,-1.3566897809,-0.4148026813,-0.0635223147,-1.0698324841,0.1006413595,-0.7299676225,-0.7731403481,-0.4941483937,0.3043823332,-0.6713758374,-0.5406992937,-0.875981063,-0.1948350505,0.1556177176,-0.2107369779,0.1205108645,-0.4155861542,0.6281820879,-0.7100314928,-0.9740132732,-0.8416397828,-0.1827501621,0.0390171787,-0.321780891,0.2842835782,0.7944321712,0.094599879,0.9234904741,-1.0790030225,-0.5376680977,0.4801421486,-0.9847092318,-0.5003973299,1.0827187111,0.0985866049,-0.9697884408,-0.195549469,-0.4766903344,0.8660401264,-0.4492576101,-0.749614568,0.6215671842,-0.0113971511,-0.4654656266,0.8779809793,0.2271517011,0.5902708602,0.0000883008,-1.131457955,0.626216548,-0.2162804386,0.3865704407,-0.0359531254,0.1432930439,0.0298724484,-0.2691555764,0.7011011789,0.8117143764,1.1119334118,0.2196961701,-0.5875241202,0.6097091408,-0.2047223225,0.1283989971,-0.3933633029,0.5463113089,-0.5780794972,0.0511280527,0.2523797885,-0.4177426167,0.4022101541,-0.8976875552,-0.5805028411,0.5501694861,0.9203023213,0.5435190842,0.6767078483,-0.7879669239,0.1356304231,0.102004226,0.5598056621,0.1474994255,0.3629655003,1.0530390797,0.6442275764,0.4531940035,0.4835862725,-0.3566481803,0.7311089662,0.287506617,0.757642196,-0.3114250689,-0.2919026133,0.3480485446,-0.3822781001,0.9805189227,-0.6679521136,0.2451649011,-0.6386206334,0.3650210983,-0.0798900341,0.2235387082,0.5746484711,0.7537856152,0.9696140182,-0.8725264222,-0.1613989164,0.0993939335,0.8303671163,-0.4428817385,0.7324268212,-0.0976200911,0.0300369994,0.9991384738,-0.781017719,-0.0348602599,-0.676361304,0.4573132225,0.4857566702,-0.0616021688,-0.9616519381,0.3164883651,0.6210970124,-0.7033775453,-0.1584469122,0.1146470156,0.0680504209,-0.6050408991,0.7927668004,-0.1651441262,-0.6137361991,0.1936648572,-0.6481668986,0.6183971041,-0.1792786121,-0.9425615761,-0.2948557983,-1.1432113946,-0.8867809295,0.6328328904,-0.5098818048,-0.7968873495,-1.0342321191,0.53555597,-0.0097837751,-0.1197905613,-0.7883207461,0.4426153693,-0.4425564132,-1.1015931258,0.466556858,-0.1116129919,-0.1557661793,-0.8906949521,-0.6077813299,0.3591948254,0.4180697835,0.7545734968,0.9048255482,0.0722009768,-1.1260069418,0.6761269279,-0.2599866807,-0.1156509765,-1.1608512437,-0.2842222237,-0.0203808377,-0.2387419944,-0.5119745424,0.4472600554,0.9643127403,0.1818429995,-0.4952558807,0.9776948638,-0.9584084501,0.5037437248,-0.0661583578,-0.2264817027,-0.8495661184,0.3822046655,-0.4098452086,0.1656042297,0.8194759127,-0.8127545278,-0.2442585896,-0.2669094412,-0.4548757053,-0.0092189807,-0.1170287349,0.6486469577,0.3924509734,0.804045061,1.0766750301,-0.640544908,-1.7282212787,-0.4968476239,0.2774725384,-0.1312153823,-0.8403868285,-0.8635350265,-0.9464508328,1.0413668414,-0.3829920511,0.0722173542,1.1256811793,-0.3500609529,-0.3576419893,-0.1015834618,0.5041839137,0.4871374731,0.0466044219,0.0935112818,-0.5715646466,-1.6166075971,1.3817393315,-1.3813509134,-0.6289266817,0.7145390734,0.5985188249,-0.6904836571,0.0917705631,-1.010590354,-0.1301406536,1.4500870699,1.2095123441,0.9401986597,-0.2536796461,-1.1797196907,0.5359548273,-0.5741177558,0.5574838291,-0.429221457,0.6425471875,0.3856986257,-0.5400029813,0.5172686402,-0.3940136094,-0.2290659658,-0.4601109373,-0.596988771,0.4042409262,-0.6713035447,0.9861350194,-0.2811986254,-0.2430861727,0.853766517,0.5297547739,0.3821313307,0.259612098,-0.5751445417,-1.2769926901,0.3016679496,-0.7218632808,1.3856419808,0.0019259956,-0.2955014033,-0.5428789091,0.2469561153,1.7430478303,-1.0172674415,0.9362604491,0.6274617287,-0.949409133,-0.1521862378,0.3624892929,-0.6695054702,0.6555398504,-1.1108974941,-0.8683990955,-0.4282698757,1.4290397312,-0.4563562472,0.339346598,1.0486249658,0.5255652474,0.1062840356,-0.7651507293,0.8008470619,-0.3726723099,-0.7147920645,-0.7453186226,0.2566089556,-0.2129739674,-0.1443420691,-0.4596415442,0.542799323,-0.6549635673,0.582637981,0.5618845603,-0.2515488225,-0.7996283656,0.3684755129,-0.1141506362,0.0129005097,0.5864879286,0.4451331751,0.713096666,0.6889723751,0.7450423418,-0.6068801105,0.9669209949,0.6036583487,0.5597510315,0.294117342,-0.0665952827,0.4821005104,-0.1950961121,-0.3179030183,-0.5775620751,0.5424110917,-0.5680164216,-0.712016543,0.2574072773,-0.2043220418,0.3927428663,-0.0571604012,0.0629861895,0.8784327446,-0.039741519,-0.0445456239,0.7498625387,-0.5719029123,0.5934147855,0.0406357432,-0.4615231625,-0.0924217528,-0.2568887419,0.597541827,-0.4630401639,0.2589188521,0.0458675518,0.0991975632,0.2531482386,0.3192707474,0.222572566,-0.3984707771,-0.5638668475,0.4540151388,-0.2258179244,0.2240438831,-0.2097814858,0.49181776,0.7973546104,-0.7998522211,0.2503149896,0.0728220332,-0.0063359851,0.5879408808,-0.1713815821,-0.3372668839,0.3028749825,0.4425079795,-0.721703078,0.8484807561,0.1765108481,-0.4778267558,-0.3486076562,-0.4140937053,-0.9646266433,-0.7685306296,-0.1264674187,-1.3725689109,-0.5194403007,1.1019370559,0.0604034869,-0.530221216,0.4754881653,-0.48495842,-0.8908616587,1.3371478098,0.9552248497,0.9524607785,0.5953647438,-0.861693084,-0.5741730808,-0.9102272997,0.40026689,-0.103644558,-0.891434598,-0.9823808934,1.1202182244,1.3996531574,0.2391807587,-0.7782394292,0.6545505334,0.5410812546,-0.7287190123,-0.6186948351,-0.6875902996,-0.4596200067,0.403285644,-0.1028685213,-0.0048872494,-0.0166533407,0.2810189672,0.1300119728,0.5746202338,-0.3678512775,0.9493931499,0.1352535647,-0.648206545,-0.8345546646,0.0018453189,1.0781366821,1.4185709371,-0.2443371742,0.6880388195,1.2615312884,0.7465906512,-0.5573286793,0.4937917117,0.8158169109,0.8833110456,-1.0371205447,0.4163686438,-0.5531962655,0.0016220098,-1.0114891098,0.6401517273,-0.7568534854,0.2264924811,-0.2844343548,0.8994583606,1.6253328672,-0.3465543586,0.0001613138,-0.5569270772,1.5079056866,-0.5497257097,-0.4911554154,-0.6231292743,-0.8464151197,-0.8862458442,-0.3771339466,0.6488775482,-0.0570355191,0.5159457097,1.1025555285,0.4167397879,-0.4972049479,0.5750348717,0.192252452,-0.9362418537,0.0869355554,0.4010067156,0.283425409,-0.2494845102,0.9437963358,-0.4458684492,0.017611371,0.5538841244,0.172342466,0.3480204324,0.1365046263,0.1532349057,-1.018560819,-0.8082170384,0.7293652958,0.5353595058,-0.9957990594,-0.6079997343,1.4019932916,-0.594150723,0.1022353931,1.0534037101,-0.2175342534,-0.9115617066,-0.8574943337,0.8178752875,-0.4513564681,-0.7012560275,-0.0159371079,0.3693409119,1.0685386693,0.1165347972,-0.6685609445,0.1675890827,-0.8166675884,-0.3148759677,0.9999744767,0.9242717368,-0.9715731723,0.4799234826,-0.1503883076,0.773179533,1.0909580702,-0.2696338162,0.0195887472,0.6854675428,0.8424749501,0.4431287931,0.8252101801,0.2105070297,0.0931957169,0.5322387117,-0.2946919425,-1.1037166736,-0.6949857529,1.1351976683,-0.4274327997,-1.5872575811,-0.5094104101,1.1484609201,0.4544989628,0.4701391058,-0.4636941006,-0.2291941249,-0.0207431497,-0.5264687662,0.0398569365,0.1365761997,-0.2245583026,-0.3010533352,-0.8985643177,-0.3803866688,0.478880164,-0.6972854624,0.1500546446,-0.2356044477,-0.033945377,-0.1044720461,-0.9210702196,0.952578482,-0.3626561088,-0.0337523045,-0.1783270574,1.1277031614,-1.2392960254,1.1590139987,-0.8032610151,0.6023463396,-0.0834985904,-0.1696529256,-0.7565680941,0.1188839489,0.0963595197,-0.2418547988,0.9377471805,0.8433053309,0.0095253329,0.832201101,0.3700575082,1.6445199591,0.1008896254,-0.1540898846,-0.0911057924,-0.9149041236,0.4356889159,-0.9440329447,-0.2064014741,-0.505286018,0.854495965,-0.5817232315,0.4517068219,1.2454109277,-0.2342036481,-0.2761374689,-0.8889818743,-0.0507104907,-0.7729685418,-0.4615767639,-0.6335437045,-0.0744934557,0.0279110981,0.4534290369,0.405212457,-0.7530255427,0.8051293873,-0.1568975945,0.2066056451,0.1655103869,-0.8878675863,0.0213086887,0.5426022805,-0.0510666454,0.9235595269,-0.317492373,-0.3527781257,0.7948069506,-0.1541493329,-0.0400544317,0.1594887702,0.4302842308,0.7130235391,0.5144047885,0.9240767395,0.1226860823,0.3123011888,1.4490677397,0.148589368,-0.2457705433,0.7095083617,-0.4569537754,0.1273176774,0.214913266,-0.1530467878,-0.6350455299,-1.4068711261,0.0034007249,-0.4221209843,-0.4648378887,-0.8226552045,1.2753457714,0.1607994642,-0.2724563656,1.8508001791,-0.5214895232,0.020993434,-0.0479331466,-0.5922472397,-0.4838100268,0.9834969523,0.2348815318,-0.2195281246,-0.0199894725,-0.0224974782,-0.7150761382,-0.4003898094,1.0913891781,0.8669905592,0.293412846,-0.0832841946,0.6826413315,-0.5334979561,0.2067474696,-0.4447876452,0.4315791426,1.1480733953,-0.4143260997,-0.5384772933,-0.0387751423,0.9718391477,0.1900193424,-1.0276087194,0.9511897483,-0.5861446467,0.4149681526,-0.334613805,-0.0105964881,0.0673660318,0.6166386173,-0.8329957025,-0.9308851303,0.8356969505,-0.4755214524,-0.7383188418,-0.0032669099,0.1622494994,0.0598665515,-0.367955406,-0.4220212438,-0.4375893937,-0.3379334888,0.2872529988,-0.3592467888,0.1132260337,-0.6135032644,-0.0766979598,-0.1998828672,-0.8090054266,-0.2836894935,-0.089465528,0.0182967649,-0.0087135299,0.0461170215,-0.0805090716,0.5517171141,-1.0310558345,0.4363809819,-0.9066252792,-0.006428115,0.1538283683,0.5452037509,-0.2540613037,-0.226229945,0.210417574,0.7651245741,-0.0319543416,0.673558939,-0.3927517326,-0.2715994734,-0.4839686095,-0.2059128206,-0.0168795101,-0.4413935492,0.0490453309,1.2189082068,-0.4944292969,1.1033504408,0.3033247406,0.2834939971,0.7125080564,1.066459345,0.0223854547,0.7126518295,0.31436954,0.6674110461,-0.0356020549,0.6199516133,-0.0187034779,0.129079321,-0.2689833976,-0.3681713863,-0.5115169356,0.1833960737,0.0801987486,-0.4978252564,-0.39123889,-0.675732142,1.301102972,0.4651184181,0.7430188418,0.5101220456,0.5808257201,-0.4642523499,1.0270502128,0.0990617535,-0.4286517228,-1.0638799832,-0.2401897177,0.4963109839,0.4742364363,0.6353227812,0.6166674993,-0.7023795064,-0.3905948071,0.3224407689,-0.4382143433,0.8423683135,0.9453538685,0.5355634422,0.5263465424,-1.0448537324,0.6927052019,0.3867887739,0.1167384893,-0.203217058,-0.360514795,-0.903722747,0.695760351,-0.1135611468,-0.2016874761,1.0414764724,-0.2876715163,0.9329699152,-0.2564186292,-0.1081379762,-0.8265171189,-0.6478851607,0.7903562055,-0.2481790308,-0.6606070616,-0.8173472816,0.8880657762,0.1463589154,-1.191306975,0.2947741015,-0.4096285512,-0.778001703,1.1109541743,1.0463945716,-0.3506244765,0.0516512969,-0.4711370426,0.457884885,-0.8815394182,-0.6206422787,-0.2297063354,-0.8505824742,0.2846915247,0.55584971,-0.6264020804,0.0541298206,-0.5173063972,0.2939822881,-0.0902147228,0.8870104002,-0.1584194342,-0.6049314363,1.2004813423,-0.3299425243,0.7903057024,0.5451330008,0.3827341271,0.5270168633,0.5506818492,-0.7280861562,0.5540965589,-0.4371772119,-0.8980870553,-0.2767008014,-0.4072982962,-0.0944763047,0.6883747601,-0.7116576231,0.2301923359,0.298577354,1.1167072202,-0.4724721142,0.3526364498,-0.9685168208,0.205323837,0.3527280995,-0.9903944703,-0.7246404736,0.6719459242,0.8330736248,0.2259143229,0.3309156476,-1.0170791342,0.5934591579,0.0023221357,0.1215494017,0.4766129745,-0.4343018832,0.1212510547,-0.0546396779,-0.0083038548,0.4453727383,-0.1435474556,1.0817608177,-0.8056094731,0.05528942,0.2383595474,1.058097445,0.2430427297,-0.0578709438,1.1009333518,-0.1503349022,0.016532737,0.9284357912,-0.6801567649,-0.3004168581,-0.6429953324,-0.384455964,0.5799126539,-0.2893422076,-0.7070850661,-0.5641301681,-0.412395809,-0.5169210443,-0.6088799401,-0.2435917565,-0.6904086475,-0.5635736577,-0.1077378498,-0.0476512499,-0.7268776333,0.3378894556,-0.816454686,0.2766591912,-0.1693096258,-0.050631693,-0.1146367391,-1.0042663849,0.4037979802,0.1831982939,0.7706934505,-0.7206136115,-0.0619008423,-0.0191244373,-0.2793344711,-0.6043193049,-1.5081677443,0.2601128042,0.1870345026,0.1568363371,0.2359768226,-0.8996160482,0.4076431056,1.3476323063,0.7432746438,0.5462490754,0.1823756742,0.7670927219,-0.8004013424,0.0472875327,0.1270517637,0.4125953255,0.7484081396,-0.1823799391,-0.4105871196,-0.7279155485,-0.4122290092,0.163412439,-0.3933476231,1.075507729,-0.7270819364,0.9449621029,-0.690856441,-0.5192436267,-0.9505148643,0.0858689257,0.7384687964,-1.1792391216,0.5416226603,0.2133270556,-0.8937009122,0.1286222349,-0.2036575578,0.2948107815,-0.0491344097,0.6325943322,0.106317059,0.4870511721,0.8162664091,0.7667590449,-0.4650702641,-0.2270493239,-0.6365654118,-0.4462676322,1.0871814945,1.0856437103,-0.2407250496,-0.556797299,-0.5502649654,-0.3041844552,0.0277972368,0.3302235069,-0.5812074024,-0.2230574761,0.80604394,-0.113724541,-0.0045676948,0.1984596672,-0.9145120934,-0.8924737362,-0.2091525055,-0.1982766759,0.355429995,-0.7218787756,-0.32242257,-0.6168403042,-1.1483368084,-0.926191375,0.542608143,-0.7726744903,0.7065493675,-0.0621323774,-0.7900843714,-0.6172321111,0.1829236831,0.4176449459,-0.5315554558,0.03079517,1.0467962189,0.4834052899,-0.8917911511,-0.6657740091,0.6999671942,-0.4665236646,0.726688764,0.1111897421,-0.2585064254,-0.602143819,-0.4628391833,0.6246877811,-0.0286330791,1.1914341477,0.2515959724,-0.6695214261,-0.8907076214,0.5712256455,-0.433403246,-0.1822437015,0.8259069656,0.4882930439,-0.6212634668,1.2123437285,0.375341091,-0.2790039827,0.7994931771,-1.3032776336,0.8292014195,0.6267257521,0.6312878263,-0.8987733018,-0.8705010622,0.3572192323,0.0874605311,-0.3102573649,-0.4113281057,-0.1570681806,0.044031882,0.2837828472,0.4846579138,0.1185711358,-0.3656019568,-0.674369824,0.5753541684,0.5994099468,-1.8544287151,0.1033657827,0.252410145,-0.4723133118,0.8266346109,0.0204666406,0.5291243415,0.595076325,0.1719323004,0.9666738972,0.6512173305,-0.0439752199,0.0069920763,-0.3420185797,-1.000875644
biasActivation=1,1,1,1
[BASIC:ACTIVATION]
"org.encog.engine.network.activation.ActivationLinear"
"org.encog.engine.network.activation.ActivationReLU",0,0
"org.encog.engine.network.activation.ActivationReLU",0,0
"org.encog.engine.network.activation.ActivationLinear"
