encog,BasicNetwork,java,3.4.0,1,1724795745154
[BASIC]
[BASIC:PARAMS]
[BASIC:NETWORK]
beginTraining=0
connectionLimit=0
contextTargetOffset=0,0,0,0
contextTargetSize=0,0,0,0
endTraining=3
hasContext=f
inputCount=7
layerCounts=2,29,15,7
layerFeedCounts=2,28,14,7
layerContextCount=0,0,0,0
layerIndex=0,2,31,46
output=0,0,0,0,0,0,0,0,0,0,0,0,0,0,0,0,0,0,0,0,0,0,0,0,0,0,0,0,0,0,1,0,0,0,0,0,0,0,0,0,0,0,0,0,0,1,0,0,0,0,0,0,0
outputCount=2
weightIndex=0,58,478,576
weights=-0.002035206,-0.039574185,-0.0752750643,0.018790008,-0.0197030931,0.0456634643,0.0416052534,0.0741353662,-0.0971674461,-0.1592338103,0.1212871365,0.0051389436,-0.0098545328,-0.0979925665,-0.1946035253,0.1400391676,-0.2725102437,-0.0123128078,0.0175909175,0.0531022425,-0.0705696915,-0.1845147871,-0.0056672319,-0.0957428142,-0.0501244688,-0.1531796558,0.1410009667,0.0823868967,-0.0237773362,-0.0505454488,0.0807539046,0.0911946877,0.0495600383,-0.0942466092,0.148772192,-0.1862647983,-0.0421657337,-0.0687875378,-0.0538548381,-0.2245743587,-0.0118997454,-0.0124026658,-0.0566270337,-0.2840412821,0.1371963464,-0.1227122642,-0.1350312891,-0.215939335,-0.0428930518,0.1249492318,-0.0552185672,-0.018848184,0.2600777592,0.0517096577,0.0784115233,-0.0242854309,0.2322801724,-0.2418164171,-0.7198131188,0.7905217463,-1.1380833809,-0.4225538269,-0.7475411772,-0.3773503491,-0.5542478756,-0.6194510084,-0.8285502281,-0.2176940283,-0.2888746052,-0.9809980086,0.3799876878,0.7904840964,-0.607908157,0.726689654,-0.5245451116,-0.80671415,-0.293257316,0.7715837349,-0.0062501915,-0.7760504407,-0.4494530745,-0.3289623371,-0.054445716,-0.0329739683,-0.4960942295,-0.722204343,0.7879876109,0.2576587902,-0.6556318937,-0.734928519,0.1672294057,-0.646351127,0.7687706718,0.9928450364,0.2685887163,0.3471073565,0.1186568944,0.8176090011,-0.6462598132,0.7492236484,0.2040648532,0.3986037505,-0.8148257295,-0.4066078887,-0.8676536257,0.3005700099,0.2451196609,-0.9691313419,0.8886372094,0.7358456469,-0.7863121751,0.1836048774,-0.8351537836,0.4892838194,-0.5947866828,-0.6564904241,-0.6692442822,-0.1380693876,0.7117839184,0.5911582254,0.5497716957,-0.5702502693,-0.4183885597,-0.5536390695,-0.9010319048,-0.5276871647,1.0305883771,0.3582259172,-0.6360011073,1.1333375737,-0.2168219565,-0.9177137611,-0.1855587602,0.9082439355,0.443385512,-0.4272690075,-0.1540458202,-1.1396301251,0.6027662374,0.9762050559,-0.2659002074,0.8225337508,-0.3290589357,0.5086809032,0.8670630553,-0.0204132577,0.5605382783,0.3183242713,0.4492633774,-0.7707155736,0.0214951704,0.0814684668,-0.8045554538,0.7503466169,-0.1518775214,-0.3395539735,-0.3579644552,0.8523352773,-0.9117091243,1.0689122935,-0.4897835751,0.6259508623,-0.0955572147,0.3198400031,-0.289294436,0.6607502571,0.6309488945,0.4436508478,0.3014440556,0.9409924109,-0.2253172463,0.004885958,0.0435754818,-0.5820542787,1.0498806676,-0.6314626886,-0.2305188649,-0.035291165,-0.4727945019,0.8109198936,0.0771402687,0.2088517348,-0.6264160636,-0.2950864658,-0.5069590403,0.8581958012,-0.237723086,-0.0796896401,-1.0593456299,0.8291377869,0.1590077656,0.6384923993,-0.1550064116,-0.9132882811,-0.2259488815,0.6615563018,-0.1727226796,0.2540347215,-0.3889405212,0.1436282611,-0.7056065802,-0.5393916198,-0.8074971515,0.8667244568,-0.1824503832,0.5696078831,0.36847934,0.3954037766,0.41898441,0.3678649328,-0.0437930436,-0.8155298161,0.8440315129,-0.0882135649,0.8239213212,0.3123145085,0.7735994607,-0.363246357,0.8830280502,0.5197005065,-0.833914099,-0.0246147718,0.5802750302,0.8680537635,-0.4838225782,0.3474913459,0.9421789725,-0.4737407188,0.5432984586,0.1314801505,-0.8085702455,0.7114896414,0.7311289165,-0.6038130853,0.9394712911,0.8508140076,-0.6716834765,-0.6854279816,-0.321249023,-0.4558392394,0.5382374039,-0.0599602516,0.7015637543,-0.8294125682,-0.4652308348,0.346918436,-0.6325825681,0.6004902731,0.2537204924,0.4060448774,0.5983203576,-0.9932907703,0.4624521953,-0.6390448375,0.8594964074,1.1032813347,0.6960565474,1.0223010821,0.4309165392,0.0526922927,0.128031875,0.110105996,-0.7264830378,0.0769503751,-0.2382383246,0.5194926368,-0.8146733671,-0.3274297455,0.6400197836,0.9512075652,0.6927806035,-0.9830041912,0.260308843,0.3463765595,0.0816234379,-0.4298113374,-0.7002916296,-0.626271578,0.3420741425,-0.4575813584,-0.4681908561,-0.1144162774,-1.1387465686,0.1395251898,-0.1579606154,0.171409484,-0.2771527185,0.3664289826,1.0025281284,-0.2475778576,-0.4468621433,-0.49395093,-0.1925784528,-0.1721128739,1.0518929812,-0.262316287,-0.3782261711,0.3614897107,0.6497950656,0.8765499079,-0.0985193372,-0.14661631,-0.0074657033,0.8870917725,0.5474690516,-0.1991952498,-1.10883752,-0.9850275129,0.8116432543,-0.0960815451,-0.1775117804,0.6221196466,0.6587939767,-0.8554055188,-0.0157016789,-0.3968955776,0.5023325962,-0.6492004924,0.9232261391,-0.4807824543,0.9115791785,-0.1481817893,-0.1386122939,0.5800580566,0.3686159506,-0.3412491664,-0.2655074208,-0.3835874721,0.1988749056,0.0459829372,-0.5305436049,-0.3140499365,1.0163740561,0.6518563611,0.2983459593,0.1457024621,-0.068101645,-0.6647988794,-0.734093027,1.0524882772,0.4013467275,-0.8038416456,0.2305417059,0.3900984049,0.7291756719,-0.2784646168,-0.2785737324,-0.8005955029,-0.8206532428,-0.0233892341,0.5198417118,-0.2730251916,0.0357511779,0.0599025832,0.8199385148,0.5178789287,0.1048877296,0.7410353459,-0.6421914887,-0.2605339047,0.44716991,0.6658466064,-0.3005514996,-0.269437051,0.1927182517,0.0890925925,-0.4974274817,-0.6077340802,0.5290114953,-0.8111001653,-0.5231403282,0.474229703,-0.9160050378,-0.8959746111,0.7582480685,0.3872797298,0.7914280508,1.0117502021,-0.1224941309,-0.4713107169,0.1459395512,-0.2286537477,-0.2363057498,0.1350109967,-0.0421269581,-1.018737488,-0.773680659,-0.418318692,0.0739369819,0.9525780874,0.1819836611,-0.424119336,0.8135004157,-0.7887953184,-0.7359401382,-1.0502926887,-0.0331307954,-0.2899135065,0.0548241004,1.1320035754,0.631002695,-0.8065445876,-1.1114073544,-0.2894198714,0.6317578676,-0.322525906,0.1567616194,0.2928240966,0.7068242326,-0.6740834652,0.934040965,-0.2229180001,-0.3715047214,-0.4524191608,0.3095521391,-0.2600401028,0.9946418451,0.738156951,-0.9329069369,-0.5627719414,0.8591567189,0.4685485325,-0.9572993166,-0.2405457713,-0.0318993097,0.8626896536,-0.7998921925,0.157226157,-0.9773060365,-0.7048299908,0.2657864425,0.5904731886,-0.3658804847,0.6306417382,-0.5388160282,-0.186877054,0.3642520551,-0.3746538808,-0.6303733291,0.4316171949,0.3433902377,-0.9538757075,0.4351794372,-0.1000380973,0.0501091167,0.6711470001,0.2005295186,-0.4691084706,-0.853444455,-0.7156130228,0.7076095885,-0.5293005492,0.4192432261,-0.5537782918,0.5627420248,0.1668989523,0.6859438396,-0.57807908,-0.1965316763,-0.0575806428,0.928392359,0.4319620022,0.1479445115,0.5709353848,-1.034446063,0.2482529637,0.8321956322,0.3006783133,0.9514426725,0.8666661284,-0.0069109606,0.657727562,-0.1088400351,0.535238533,-0.2053301199,-0.0661912675,0.4917477828,0.5060375512,0.7048602995,0.1944524165,0.2694375974,0.7588753634,0.068511261,-0.2228734746,-0.6979780486,-0.8525972298,-0.9455973661,-0.3585831845,-0.2689187439,0.239620491,-0.3260715232,-0.0343411271,0.4373075488,0.4763234068,0.0132197142,-1.0243513426,-0.8647683167,0.1695803757,1.4081159055,0.4587182526,0.7524417491,-0.2432097595,-0.7976228785,-0.8230063059,-0.8098799018,0.509617338,0.3828670051,-0.6582971322,0.1701555837,1.1309360901,0.7366512364,1.2683703557,-0.7348271468,0.6156112905,0.879725469,-1.2376122262,-0.2931690371,0.855310071,-0.1900201187,0.6457647112,0.4457342913,-0.4347945503,-0.2170865888,-0.7696573146,-0.6975853674,-0.4440776205,0.4961444978,-0.1862672707,-0.8964774465,0.9303666004,0.100269451,0.1837139813,-0.2541311331,1.1228714963,1.0207196948,1.1512370797,-0.0691622977,0.4122762842,-0.1925315593,0.8387472092,-0.088029959,0.6067084629,-0.5310059753,0.1857066531,-0.4281425077,1.1399544187,-0.6638857868,0.0950522118,0.9668262779,-0.7950668996,0.6863714819,-0.507488629,0.0996808525,0.6407566442,-0.9725457763,1.2553413767,-0.9449744377,-0.4356012172,-0.5366104324,-0.0297732536,-0.4686152054,0.8425573184,-0.8532623177,-0.4438445435,-0.2393589873,-0.3960519031,-0.5519589145,0.5971178228,0.4571146687,-1.4041535242,1.0917248652,0.4632535256,0.5925634987,-0.1408670214,0.8009406129,-0.6304757211
biasActivation=0,1,1,0
[BASIC:ACTIVATION]
"org.encog.engine.network.activation.ActivationLinear"
"org.encog.engine.network.activation.ActivationReLU",0,0
"org.encog.engine.network.activation.ActivationReLU",0,0
"org.encog.engine.network.activation.ActivationLinear"
