encog,BasicNetwork,java,3.4.0,1,1724235568311
[BASIC]
[BASIC:PARAMS]
[BASIC:NETWORK]
beginTraining=0
connectionLimit=0
contextTargetOffset=0,0,0,0
contextTargetSize=0,0,0,0
endTraining=3
hasContext=f
inputCount=5
layerCounts=3,7,61,6
layerFeedCounts=2,6,60,5
layerContextCount=0,0,0,0
layerIndex=0,3,10,71
output=0.4658396312,0.4419656338,1,2.1353089597,2.1128571321,2.0859290793,3.2475931421,0.7895333363,0,1,0,0,0.3511129794,0.2576852853,0,0.9499159982,0,0,0,1.9149200695,0.9353386117,1.192018056,0.276108534,0.5878424638,0,0,0.6186291305,0.8115663577,0,0,0,0,0.6276730837,0.4925782678,0,1.1769285887,0.6028734925,0,0,0,0,0.8121556936,0.0324536908,0,1.3759826668,0,1.4816596098,0.7005498989,0,0.4674070665,0.6518848132,0,0,1.0286480401,0.3773000711,1.4823070816,0.0917941748,0.2067118556,0.2408077964,0,0.782050131,0.6401399879,0.703225948,0.6272549664,0.8553185091,0.1649521382,0.7656401982,0,1.6703319302,0.4001514723,1,0.485124356,0.4334115071,-0.5957689329,-0.4370327952,-0.432959175,1
outputCount=2
weightIndex=0,14,380,740
weights=-0.2891020886,0.0839495539,0.3981141315,0.0935965362,-0.2512994165,-0.0957705677,-0.0302250576,-0.0474020783,-0.0275730708,0.4607410606,0.1506919729,-0.3132071756,0.1556614559,-0.6018878514,0.5551752292,-0.3318054632,0.5809907799,-0.8102060469,-0.2603672384,0.1852081239,0.7466360316,-0.4540308764,-1.0302236773,-0.6149237894,0.9394274667,0.4664192522,-0.6603300395,0.4835849489,-0.2859729853,-0.5593093902,-0.1131482181,-0.1211475396,-1.7622201882,1.4195756617,-0.3206079426,-0.5593626693,0.7386251413,-0.7255041971,0.9149408804,-0.1055548633,0.2615229606,0.571626954,0.1018010688,0.4240861865,0.0425250291,-0.4634474206,0.0163585293,-0.0704770137,0.5571728101,-0.0497117465,-0.1400256267,-0.1542282648,0.8725247426,1.0420969305,0.4785165401,0.1626824978,-0.3335401627,0.6716097014,0.6288967132,-0.9326091939,-0.6238272858,-0.9046888073,-0.5969700415,-1.4928170751,0.4970661397,0.5787971336,-0.5894358975,-0.050250566,0.8652102628,-0.3689547427,-0.928511556,-0.2387347854,0.4297062227,1.1482318125,0.1430423621,-0.376130484,-1.4658787594,-0.7926043285,-0.0688585461,-0.3633016222,0.5121827037,-1.1760171029,0.8583680451,0.3497713641,-0.5448692219,-1.0731394539,-0.0355599692,0.6225542358,-0.5841977041,-0.8537848842,0.8963034936,0.2300520658,-1.1488377313,2.2619184665,-1.3020823793,-0.1613668528,0.6328457341,-0.1659354014,-0.8191590234,-0.8087732288,1.0295078764,0.6022729052,-0.907667533,1.0797823434,1.9502031502,1.5764982264,-0.391286392,-0.7874640524,0.522313147,0.4721856523,0.0197027649,0.4137520749,0.6281906646,0.0858764993,0.2316332916,0.4334685424,0.0180827254,1.2776842053,0.9351005294,0.4457380426,0.9558806875,-0.2909862971,1.1195669993,0.8849069941,0.0223052956,-0.2456311204,-0.0575979688,0.9932753659,0.3529264999,-0.9445930123,0.2492208744,0.5233259926,0.3984537397,-1.0510924495,0.5306821123,0.4099149948,0.5078744113,0.1842312316,-0.550929195,-0.8337925671,0.7641174682,-0.4450769671,-0.0526540068,0.133829677,-0.1518724155,0.7175152584,-0.2013365725,-0.7419640723,-0.3514911858,-0.501303284,-1.0664636208,0.2540156231,0.4474552895,0.1867446413,-0.5365802367,0.153395719,0.6224754911,-0.3423604054,-0.5368338913,-0.5274398443,0.1976848964,0.3770967794,0.2528617908,-0.3122439543,-0.5109012378,0.7164616856,-0.2494452772,0.3283757046,-0.1313367936,0.8172994099,-0.146462091,0.6473301554,0.8691344307,0.6838208437,0.327121088,0.6936002909,-0.0128461524,-0.8684189269,-0.5896567679,0.2964073935,-0.4856433503,0.4193009376,0.3957578868,0.2714162357,0.1284276618,-0.5076214429,-0.2265782835,-0.4530080858,0.0796034627,-0.0228426106,0.4125431173,0.6850039005,0.5879250616,0.6332971805,-0.3204572245,0.2118634524,-0.4706135946,-0.6133880383,-0.23166761,-0.8618674334,0.0875644661,-0.8504772824,-0.3812394556,-0.3837792015,-0.7633424162,-0.6420720074,-0.7332730765,0.5848459488,0.43782119,0.209788152,-0.1187435551,-0.894309884,-0.2983118208,-0.9449973248,-0.229889253,1.4520979393,-0.5107748741,0.69571276,0.0481264714,0.1579327327,-0.8881332919,0.3016142263,0.1069715991,0.331832595,-0.0681977663,0.2820636505,-0.3620816036,0.4587383204,-0.2481849995,-0.4787726372,0.2309401252,1.0094458004,0.7957587154,0.438457699,0.8388521522,-0.5852845357,-0.6971175457,0.1845381293,-0.5370836991,0.7566428857,0.3572442337,0.623942049,0.7953831649,0.6745529006,-1.0333147527,-0.7899367563,1.0827556345,0.8015246076,0.1081537043,-0.7331619403,0.6570515943,0.6390573248,-0.4548007656,0.9415743607,0.0063353536,-0.6716122655,0.0095602241,0.7094729027,-0.2281476097,0.5983256369,-0.3779717262,-0.3509909067,1.0842534476,0.8697028992,0.3734338997,-0.0109387151,0.52116144,0.312163107,-0.1943505795,0.5176781329,0.4781241221,0.7636913212,0.5557202461,-0.0105706603,-0.1811734844,-0.0844241105,-0.2477060754,-0.6237355349,-0.1362856087,-0.750579555,0.0777870112,0.5326645043,-0.2414450452,0.7635196866,-0.5475008445,-0.1336235736,0.3991482646,0.5211431241,0.1496713391,0.5858409529,0.651121161,0.1154778605,0.1384273815,0.7620098534,-0.0202284575,0.061812576,-0.4268884973,0.2176615747,0.0174208565,-0.6789222361,0.3434554565,-0.0140458316,-0.3253196744,-0.3818274644,-0.4734444226,-0.0308115211,0.5932322537,0.6155878486,0.1491629803,-0.7619087138,-0.0280886099,-0.6389401478,0.6122555858,0.8899264835,0.5975159708,0.3308559259,-0.9040912627,-0.4149370549,-0.9902357404,1.0334913973,-0.4012691473,-0.5216228073,-1.2396246681,-0.8904968986,-0.778084597,0.6085184666,-0.0897186383,-0.2825544864,-1.016282677,0.1524257644,-0.5076483705,-0.6291621135,0.5907840027,0.1006338773,-1.8339115464,0.266614847,-0.7833764598,-1.8315449551,-0.4939549047,-1.2277122269,0.173003125,-0.4371803802,0.39587632,-1.1766237096,-0.6989209717,-1.7887615405,-0.0116254037,-0.3417499137,-0.4827612209,-0.8598359923,0.0118129003,-0.2042189612,1.1478181906,1.3589255005,1.0046212256,-0.8304850329,0.5648838792,-0.0106967831,1.0374209067,0.492885364,-0.9040038433,-1.4300009851,-0.3525131889,-1.1661705206,-0.6760568649,-0.61630232,0.1071025058,0.1181424489,-0.526527236,0.8871424115,-0.0102321608,-0.2122321964,-0.0484474588,0.1045684557,0.5986582555,-0.2013333135,-1.7499021185,1.0662589982,0.4590565128,0.8559663565,0.4147756042,0.2443179489,1.5077923876,0.767787808,1.3635402829,0.5380210989,-0.6692450833,0.6608918875,0.8124218029,-0.5469141157,-1.0041677958,-0.2518531567,0.2047297678,0.0739914204,0.1911269826,-0.3693132561,0.8150388059,0.5251612735,-0.1259523868,0.2764967257,1.1900165201,-0.6845021346,0.3872630154,0.7765017954,0.0425440321,0.5748491365,0.3682621337,1.2949654754,0.6456400552,0.441543001,0.524579446,-0.0676469278,-0.6535378546,0.1688268343,0.2849402524,0.5325728688,0.4165436096,-0.1824657737,1.2665758647,0.6137704402,-0.4048193888,-0.4357063071,-1.3940832605,-0.3806843725,0.1531436854,0.7950647386,-0.2191152925,-0.6811497901,0.6986536095,-0.2025970739,-0.0486141102,0.5757740665,-0.4729577467,-0.6304168592,-0.2718575139,0.9087044606,-0.5175768622,-0.3500945425,-0.7701503392,0.858152838,-1.1595084584,0.4557279709,0.4738883672,-0.0777002543,-0.9311633919,1.1455291954,0.3478273958,-0.2099121184,-0.776681958,0.3526801184,-0.3329499561,0.661546295,-0.0249699501,0.4070761583,0.2742114345,-0.1932217465,0.2693138559,0.3073054988,-0.8157515985,-0.2504997277,0.4545303604,-0.2719796167,-0.8147030787,0.8913668214,0.6257874079,-0.7707291128,0.3801142674,0.1446694466,0.6014571447,-0.734622545,0.4229446657,-0.9324533968,-0.0135056065,0.0129812367,-0.8096829256,-1.0813139978,0.6259150031,0.1683885349,-0.3691190767,-0.3422143278,-0.8503771021,-0.4956858103,-0.6120958645,-0.2776649544,-1.2311626248,0.9672231314,0.0722436296,0.9493579157,-1.6692107596,-0.0216885407,0.728098834,-0.0157420694,-0.662736752,-1.6007184273,-0.6216235199,0.5595633452,-0.0291688023,0.1467108066,-0.7876796834,-0.5793089477,0.7056338513,-0.0442369547,0.1942333469,0.4226732294,0.1801344963,-0.1622204703,0.8365042555,0.0307108749,-0.1537596286,1.1490936974,0.0019101812,-0.6996299276,0.0318438698,0.0557763432,-0.63113079,0.5723055211,0.4037221421,0.6369851692,-0.3594084109,-0.036290529,-0.1118874498,-0.6452195828,-0.6553657951,0.0502897522,0.6336727358,0.2376613454,-0.2076350544,0.6885985453,0.2812496356,-0.4632292689,0.9684646204,-1.1485628106,-0.1010976393,-0.6815094494,-1.0212808912,0.4047063097,-0.1094767805,0.6265210964,0.820924523,-0.6810836984,0.4131386733,0.7546749005,-0.7018611111,0.3147148638,0.2617016837,-0.0318020851,-0.0011252463,0.1309409089,-0.6671685173,0.6411562228,0.1531616697,0.5467431897,0.07727699,-0.8253346606,-1.0463847785,-0.2239756448,1.0672564486,-0.3369550192,0.6522740917,1.106393893,-0.1020118566,-0.1578707912,0.0114375382,0.7298106793,1.7309906679,0.6685333601,0.7285134457,0.095793666,0.050479715,0.4942683606,-0.9972205165,0.2315503047,-0.7053658334,-0.4053089803,-0.3963910051,-0.3492785494,0.3239846067,0.3017945833,-0.4511439163,0.0216601995,-0.1365640315,-0.3111524053,-0.6320388152,-1.127648941,0.6071786001,1.0644744751,0.4271944901,-0.8997989025,-0.6849330688,0.1847940991,-0.8507386022,0.0487271563,-0.1428505258,-0.6602132785,0.21376743,-0.5029230935,-0.5157982993,0.3511114508,-0.4956192846,-0.6345502863,-0.7521931573,0.6814288935,-0.1746918105,0.1422513839,0.5603931184,-0.335030435,0.4614479913,1.1108455322,-0.3246562337,0.9432087453,0.4333352434,0.7805056922,-0.1445361086,0.2069189938,0.0012885898,0.6223852281,-0.5023937414,-0.0740702612,-0.6948810207,-0.4355328953,1.0229699614,0.143173916,-0.0438085122,0.831732061,-0.4658173448,0.2292676535,-0.2756344314,0.1066447714,-0.736483907,-0.8286590782,0.8435464581,-0.5917984892,0.0143798845,1.199429193,0.2479169003,-0.0066342641,-0.233101988,-1.141382353,0.066768244,0.1243884555,0.43290031,-0.4590351057,-0.7165778792,0.6893616959,0.6960585202,-0.5758077602,0.557572059,-0.2724372725,-0.9446460424,0.0933880795,0.7181594687,-0.321650622,-0.2578828415,0.3406900442,-0.5927277678,1.0119236822,0.0798630596,-0.159711549,-0.1860172743,0.508472749,-0.2357573022,0.1315698568,-0.0424152066,-0.6758319264,-0.9224144698,-0.1253742813,0.8052467082,0.2645189791,-0.0524287996,-0.9100310976,0.6957720963,0.2436920032,-0.7525909667,0.8558929824,0.0827023413,1.666828236,-0.1924615161,0.4596013626,0.3974958702,-1.7358043484,0.2726699311,-0.0449181648,0.1947500414,-0.6582374557,1.1297262814,0.9867424703,0.1381090063,-0.6700151688,0.4169445735,-0.8895554137,0.4367492771,0.9122693307,-0.5778129124,0.8226079039,0.01630053,-0.2653688393,0.019739923,0.5293053358,-0.0384559716,0.0897891069,-0.4034060382,0.3211442487,0.4889029589,0.718651435,-1.0049723098,0.3561960344,-0.2604595269,0.0760402948,0.1633627477,1.1372440834,-0.0617921795,0.8459036801,0.879460758,0.6296733112,0.2092052995,0.7180660141,0.3508976898,-0.0806925438,-0.0918405921,-0.5346209381,0.3002753985,0.4719691122,0.8988493449,-0.9470492859,-0.2712632919,0.3335553685,0.4740221588,-0.6583305055,0.3034996115,1.208974582,-0.1191428493,-0.3937923227,-0.2194629271,0.6609967133,-0.961054976,-0.0009384119,-0.3253546261,0.083088168,0.3070662021,0.8421558197
biasActivation=1,1,1,1
[BASIC:ACTIVATION]
"org.encog.engine.network.activation.ActivationLinear"
"org.encog.engine.network.activation.ActivationReLU",0,0
"org.encog.engine.network.activation.ActivationReLU",0,0
"org.encog.engine.network.activation.ActivationLinear"
