encog,BasicNetwork,java,3.4.0,1,1724424860153
[BASIC]
[BASIC:PARAMS]
[BASIC:NETWORK]
beginTraining=0
connectionLimit=0
contextTargetOffset=0,0,0,0
contextTargetSize=0,0,0,0
endTraining=3
hasContext=f
inputCount=7
layerCounts=2,29,15,7
layerFeedCounts=2,28,14,7
layerContextCount=0,0,0,0
layerIndex=0,2,31,46
output=0.209941553,0.5306479301,0,0,0,0.0493178815,0,0,0,0,0.0132306065,0.7538072971,3.1123166485,2.0430525999,0,0,0,1.4105725528,0,0,0,0,0,0,0,0,0,0,0,0,1,1.3994381432,0,0,0,1.9407751111,0.7142323963,0,1.0741977571,0.3688263631,0.0972575234,0,0,0,0.9369977552,1,0.2100233482,0.5306446631,-0.7774485039,0,0.2878135929,-0.681719498,0
outputCount=2
weightIndex=0,58,478,576
weights=-0.2837994302,0.182774987,-0.0539869513,-0.0058632382,0.0430194003,-0.0187981462,-0.1059685938,0.1473948781,0.0913688168,-0.0349986553,-0.1486173645,0.6740236333,0.0033992088,-0.1363014761,-0.0662475945,-0.0482439592,-0.0156322212,-0.1070854018,-0.1587172638,-0.002370311,0.1529822064,0.0750864663,0.0456424659,0.0550777044,-0.1156400612,0.0009099464,-0.04757211,-0.1648819882,-0.6127257648,0.4409745417,-0.0029285486,0.2585926232,-0.0844710014,0.07470039,-0.1065383001,0.0986297604,0.3088177278,-0.0284146588,-0.1248625515,0.2253607556,-0.1338805508,0.0808493519,0.1678232168,0.2286309423,0.0230990848,-0.0612110154,-0.0800592704,0.4349472914,0.0477133912,-0.179134454,0.023463883,-0.1761250004,0.049969535,0.1045679353,0.06044084,-0.0674299265,-0.0027955578,0.1701023267,-0.4590331989,-0.0945317656,-0.2965310243,0.7025299878,-0.1381377199,-0.2471182417,0.4898507464,-0.6933438486,0.2539725678,0.09145428,-0.3788223864,-0.2532086047,-1.1626397555,0.09113431,-0.0669362347,-0.1206843276,-0.4676314536,-0.1563673784,-1.1334779085,-0.5557647793,-0.857408364,-0.3167031909,0.4013548935,-1.1454459187,0.1397134481,0.7299894966,-1.4487773647,0.9662649867,-0.3303102815,-0.110261699,1.1374169467,-0.3021907337,-1.1098927812,0.1903439645,-0.7313168198,-1.4366285155,0.1988863301,-0.2625641011,-0.2053874924,0.9388902508,0.0187798077,-0.200485841,-0.1177513061,-1.5053098339,-0.8384677573,-1.6071254483,0.017532297,-0.4348896971,-0.248155077,0.780879859,0.2900860298,0.3442123589,0.2448091115,-0.0038964264,-0.8861376429,-0.3038615988,0.1734516298,-0.5604111091,-0.3369023349,0.7140502849,1.2592712531,-1.3706917844,-1.1318705447,-0.7295316062,-0.1546375211,-0.0951322012,0.1286923426,-0.525545716,-0.0620412946,0.7293323762,0.6925073044,-0.8524717143,-0.2695536226,-1.4157628776,-0.1489509805,-0.8845203542,0.7760700404,1.1347543639,0.9540748792,-0.1706706872,-0.1055753876,0.5783068618,0.3947476613,-0.3184577538,0.9979565218,-1.0957948119,-0.3515421744,0.0343294045,-0.0594444592,-0.3452921344,0.2466993506,0.8569694251,-0.3639894851,-0.1463247419,-0.7294447202,-1.0804856637,-0.7134745216,-0.6905779767,0.3335596452,0.5707653524,0.3678328683,-1.275220188,0.0125207427,-1.2194123587,0.1271345449,0.9689940868,-1.7502488042,-1.1778280935,0.1512519627,-0.5796870126,-0.2078871958,0.7240152365,-0.8522190829,0.0190337828,0.2968451533,0.6937075894,-0.4105039198,-0.5204012243,-0.9257316816,-0.3261287802,-0.0928788327,-0.3178164389,0.6069439079,0.3232987148,0.2627770672,0.121728843,-0.0597382884,0.3508827844,-0.072450214,-0.2610943292,0.0960047475,-0.0811893942,0.2469212898,-0.3818320286,-0.423023093,0.1682129418,0.698934356,0.9408074329,1.1110409694,-0.7778792646,0.696575703,0.0647626593,0.5467797251,-0.7109233012,-0.1479226604,-0.1198060526,0.2382792498,1.0423907791,1.0960135811,0.1911751057,1.2230659807,-0.1669051275,-0.1560739452,0.2422356181,0.0979517886,-0.2054125657,-1.0771959974,0.0636833456,0.5112440469,0.548797698,1.4596026457,-0.1809810816,0.0132871278,0.7901059361,0.3087574185,0.5665039752,-1.2039071624,-0.2536385192,-0.0956377228,-0.3434556588,0.3707874552,0.3134400079,0.1497519123,1.0098291939,0.0174430961,0.4945477221,0.3941107487,0.3532953944,0.1978182707,0.9300059058,-0.202216194,-0.3896802097,0.1589798329,-0.5760305555,-0.7398571519,0.0165556563,-1.0600376568,0.3863523138,0.8131685846,-0.5809233957,0.158621142,-0.1085566741,-0.1179753333,-0.6399751648,0.3599544459,0.1355882666,-0.2818955348,0.2751264696,-0.3166761398,0.1330599554,-0.2048428401,-0.5786712504,-0.362086385,-0.5573327667,-0.5268046513,0.2303893958,-0.5155707169,0.3961116794,0.0578359896,0.087883734,0.1685981072,0.2968250355,-0.5792525264,-0.5386191607,0.0148852875,-1.1350572229,0.9110953237,-1.0965248591,-0.0696382166,0.3769880343,1.3298209703,-0.4059154476,-0.1677961037,-1.1981958664,-1.0130959859,-1.1109923161,0.3324401946,0.6221505238,1.1987554119,1.030958185,-0.4655629729,-0.9975323757,0.7414364965,-0.4055725055,0.4290971098,0.451824588,-1.2661100617,0.6599696002,0.581213167,0.0665436091,0.5562564429,-1.0280297297,0.8582162564,-0.8364334591,-0.4061179708,-0.4023678946,0.7322064443,0.2866110295,0.4824602944,-0.2051359413,-1.6892196146,-0.2574014417,-0.0336967736,0.2402095492,-0.6755014606,-0.3218378512,-0.3262848285,0.782961946,0.5979325093,0.0354648746,0.0079044997,0.2175665989,0.8070349297,-0.2717786137,-0.9958343799,-0.3922451904,-0.9841464886,0.1871436895,0.3887327425,-1.0450174167,-0.2550964912,0.0582246542,-0.3707925091,-0.1092219646,-0.3334028998,-1.2268865662,-0.013932771,-1.0969598323,0.4541161512,-0.3742670426,-0.8382630327,-0.1741424739,-0.5123225817,-0.6034804958,0.3840168238,-1.1680916832,0.3265694608,0.2878497247,-1.0771315853,0.9197516947,-0.4594403854,0.0377083087,0.7390072179,-0.8859215093,-0.2448024379,1.1176647642,-1.0962673408,0.0707681995,-0.6561260646,-0.5723308849,-0.0549778581,-0.0241902667,-0.0193983076,0.6454564979,-1.2188063341,-0.6151518827,0.065345927,0.1547668215,-0.5921834062,-1.3940170353,-0.7415112972,1.048157563,-0.9980084114,-0.3524742338,0.7360715951,-0.2530645204,0.8968164805,0.0088130064,0.0591234472,0.3187451459,-0.774320859,-0.8922199517,-0.0878506071,-1.7290819192,0.5770274143,-0.0369914317,-0.5269419244,0.6439990876,-0.3624017167,-0.7431995888,-0.541482032,0.0057987546,0.7026548941,0.1054916861,0.5382440781,0.2383569739,-1.0986754429,-1.6493883786,-1.8952704494,-0.4026082378,0.0880474667,-0.2225031519,-1.1216469881,-0.0017152486,-0.0865804548,1.1134106873,0.6281788654,0.7920562269,-0.7120874395,0.4497277143,-0.5846215081,0.8380538702,-1.4168244648,-0.401883162,0.3995470064,-0.217056958,-1.1082348211,0.6881927772,0.1006529611,-1.2715293224,0.3766932579,0.2989351283,-0.2282015403,-0.4424542009,0.0309651789,-0.5795919424,-0.5947638502,-0.05935452,0.163357172,-0.0980545716,0.0924783473,-0.0421256925,0.6312469484,0.2965792232,-1.024184331,-0.3435976221,0.521544971,-0.2397347618,0.2651367655,0.0579496794,-0.8204875111,-0.4427209369,0.4232669399,0.2108113607,-0.4241475055,0.9264107125,-1.9360331995,0.6890498451,0.3016407098,-0.1580373776,0.0526390961,0.3760300254,0.486067844,-0.2751199162,-0.802327403,0.5984203863,0.1238556793,-0.2487902943,1.1438363349,-0.9285705713,-1.1280579675,0.7993666299,-0.1711528305,0.3989723135,-0.0029553127,-0.0912660286,0.2904650732,-1.766194687,0.5816094061,-0.9785530644,-0.4480193316,-1.0580385942,-1.7549729599,0.4751924914,0.4912087991,0.5106950193,-0.3458749772,-1.1569509348,-0.477859241,-0.1572153654,0.2564531018,0.8782381627,-0.3523336212,0.4266433225,0.6621559774,-0.6098974845,0.25590197,-1.0106329936,-0.6602683775,-0.1036119096,0.6275083437,-0.0493304596,-0.2511503811,0.3145192443,-0.4410418591,-0.4250148247,0.8755214059,-0.681558805,-1.8570574458,0.1229107766,-0.6002643142,0.8172751884,0.0612810737,1.4260860767,0.5279668097,0.6958296046,0.6352938192,-0.5611739444,-0.6298606344,1.4261021211,-0.983391187,-0.5760693047,0.2472983994,-0.703967154,-0.0218818523,-0.2538353266,-1.5193472918,-1.2228189583,-0.2140685897,0.1961521827,-0.8301214761,0.5294234239,0.2960340451,-0.4169611517,0.2905209199,0.0453920834,-0.0560759185,-0.1345689805,-3.6429975388,0.0257224965,-0.4797455547,-0.6574701489,-0.5822584015,1.1624781678,-0.7008341997,-0.4153685836,1.0841678461,0.7450720351,0.0454519959,-0.9284186849,0.1053841289,0.3668134876,-0.5276479064,0.1628020888,0.4613139318,-0.1546365592,-0.6945024468,-1.3520691132,-0.1297651523,0.4547567124,-0.4687937422,0.0294474301,0.9080981222,0.4476896611,-1.3059002989,0.0365461258,-0.3247909471,0.1224751608,-0.2473161146,0.1321373794,0.947712475,-1.2551311629,-0.1741803108,0.4308105268,0.8968249129,-0.5532529481,1.0975648167,0.0096041132,0.0893184707,0.1931404252,0.7046692203,0.2183423982,-0.6366480923,-0.3946111382,-2.3240469831,0.8059222893,-1.0116175605,0.1589985258
biasActivation=0,1,1,0
[BASIC:ACTIVATION]
"org.encog.engine.network.activation.ActivationLinear"
"org.encog.engine.network.activation.ActivationReLU",0,0
"org.encog.engine.network.activation.ActivationReLU",0,0
"org.encog.engine.network.activation.ActivationLinear"
